1496 128
469 -0.141251 -0.108132 0.164231 -0.068730 0.116858 0.010768 -0.108792 -0.191696 -0.006858 -0.110335 0.060490 0.102558 0.009515 -0.073460 -0.199878 -0.048567 0.018738 0.006745 -0.137835 0.089755 -0.022350 -0.081924 0.019833 0.131131 -0.052353 -0.143292 -0.135436 -0.049422 0.118623 -0.056524 0.065339 0.044371 -0.023880 -0.214192 0.141623 0.088981 0.120712 0.095315 0.037065 -0.093289 0.104000 0.045958 0.038393 -0.074171 0.009180 0.073720 0.020857 -0.093922 -0.034013 -0.014088 -0.115878 0.000657 0.152199 -0.117576 0.075939 0.055569 0.058092 -0.027208 -0.101970 0.056044 -0.073615 -0.079777 0.038706 -0.065293 0.007837 0.073013 -0.059034 -0.201156 0.122936 0.003374 0.150203 0.110366 -0.041122 0.001304 0.029241 -0.151904 -0.025964 0.039617 -0.192829 -0.021831 0.034873 -0.102806 -0.104122 -0.089971 0.018482 0.011315 0.101175 0.056980 -0.011948 0.019975 0.112642 -0.220484 -0.068378 0.072057 -0.085523 0.001756 -0.080560 -0.184606 -0.071442 0.003352 0.123626 -0.043128 0.058971 -0.071059 -0.130873 0.037277 -0.024337 -0.065761 -0.031064 0.114243 0.051355 -0.075319 -0.009689 0.084454 0.031030 -0.006465 -0.052291 0.369386 0.064513 -0.145005 -0.174984 -0.107193 0.173733 0.204819 0.156822 0.016552 0.170962 0.084919
540 -0.161601 -0.121008 0.156021 -0.040881 0.121508 0.034833 -0.091881 -0.181707 0.007032 -0.128496 0.068871 0.070239 0.002033 -0.070045 -0.233966 -0.051511 0.018316 -0.000679 -0.145251 0.123226 -0.028238 -0.066459 0.067180 0.129659 -0.031788 -0.129079 -0.106594 -0.004453 0.077836 -0.062625 0.054290 0.039344 -0.014375 -0.177343 0.116646 0.069677 0.096153 0.058624 0.032119 -0.067507 0.056592 0.034468 0.046949 -0.024068 -0.008166 0.070141 -0.019106 -0.069619 -0.038274 -0.002763 -0.094135 0.006610 0.134454 -0.047201 0.069476 0.025890 0.025287 -0.027819 -0.101169 0.052432 -0.098068 -0.076363 0.056146 -0.077244 -0.002080 0.057804 -0.040625 -0.167039 0.113634 0.008828 0.171471 0.122928 -0.015638 -0.033825 0.032535 -0.152704 -0.011740 0.025635 -0.218869 -0.032934 0.072799 -0.076849 -0.095217 -0.096507 0.007769 -0.019451 0.135397 0.068723 -0.035872 0.026673 0.094759 -0.200165 -0.070263 0.065513 -0.109165 0.008242 -0.060613 -0.182105 -0.088777 -0.003446 0.115304 -0.053504 0.079985 -0.096767 -0.106972 0.031479 -0.006129 -0.001417 -0.040255 0.109128 0.056617 -0.081048 -0.016443 0.057702 0.040667 0.022271 -0.096483 0.399385 0.057612 -0.208976 -0.161271 -0.086664 0.165531 0.186700 0.172307 0.017391 0.157840 0.056579
622 -0.122540 -0.089980 0.164814 -0.053648 0.115612 0.051729 -0.078734 -0.167253 -0.021862 -0.113486 0.038781 0.090176 0.004232 -0.050398 -0.175439 -0.030897 0.026388 0.016364 -0.131217 0.119612 -0.022016 -0.080418 0.040357 0.098949 -0.032351 -0.099536 -0.135292 -0.037283 0.087801 -0.036654 0.083188 0.060344 -0.031229 -0.195841 0.147622 0.102392 0.084864 0.077663 0.031759 -0.090679 0.090616 0.007421 0.033035 -0.046295 0.012893 0.061510 0.025586 -0.105695 -0.020628 -0.032745 -0.119702 0.044893 0.106927 -0.094023 0.102647 0.057759 0.051663 -0.086372 -0.099960 0.074975 -0.080256 -0.056823 0.046739 -0.053549 -0.004305 0.074998 -0.038993 -0.128638 0.110322 0.006719 0.178225 0.116789 0.004708 -0.010099 0.030186 -0.140202 -0.036244 -0.004668 -0.222140 -0.043524 0.069228 -0.087286 -0.092817 -0.091398 0.045094 0.010663 0.126803 0.062427 -0.035518 0.031293 0.112193 -0.219890 -0.082795 0.047052 -0.120588 0.002639 -0.031581 -0.163666 -0.063605 -0.005533 0.114586 -0.035160 0.099321 -0.127070 -0.112505 0.020772 -0.002630 -0.019599 -0.035859 0.107049 0.076780 -0.117639 -0.043531 0.068681 0.050106 -0.007045 -0.113307 0.354423 0.026157 -0.213351 -0.159910 -0.077768 0.130485 0.207724 0.158693 0.033878 0.160562 0.057448
702 -0.167327 -0.109705 0.190604 -0.037934 0.118208 0.028085 -0.085514 -0.177059 -0.000310 -0.097759 0.058576 0.085060 0.034013 -0.054358 -0.180509 -0.046138 0.005630 -0.008099 -0.156461 0.109591 0.006510 -0.071088 0.068202 0.116255 -0.026722 -0.125087 -0.149049 -0.036560 0.083167 -0.055001 0.076738 0.043819 -0.042601 -0.172881 0.132149 0.078779 0.074527 0.103187 0.027190 -0.090184 0.033319 0.036910 0.033608 -0.035173 -0.007815 0.061731 0.000749 -0.075972 -0.034758 -0.049001 -0.128295 0.007107 0.134643 -0.085731 0.089652 0.038742 0.045461 -0.036061 -0.116564 0.093930 -0.092617 -0.039772 0.067948 -0.064840 0.018381 0.081992 -0.055320 -0.178286 0.114039 0.006253 0.145222 0.107571 -0.021229 -0.047798 0.011140 -0.152167 -0.003282 0.011351 -0.224954 -0.022284 0.053801 -0.093583 -0.080437 -0.106981 0.008990 -0.000347 0.131230 0.076914 -0.000966 -0.009864 0.102948 -0.196046 -0.077913 0.048233 -0.095047 0.026531 -0.051813 -0.169779 -0.080406 -0.019059 0.108237 -0.032295 0.096002 -0.103336 -0.112362 0.036555 -0.018721 -0.040466 -0.031906 0.110673 0.069608 -0.077327 -0.019531 0.048773 0.060224 -0.003905 -0.112972 0.381223 0.026487 -0.196134 -0.179122 -0.086986 0.152715 0.214798 0.158844 0.005746 0.164066 0.067774
766 -0.121199 -0.122462 0.159670 -0.060878 0.090263 0.038867 -0.080888 -0.154112 -0.023510 -0.114269 0.057514 0.112693 0.001856 -0.049599 -0.189708 -0.027645 0.003396 0.011000 -0.135541 0.117468 0.013818 -0.093512 0.035710 0.121052 -0.036841 -0.136887 -0.121567 -0.046645 0.079040 -0.057390 0.078553 0.054602 0.016727 -0.213535 0.144769 0.083571 0.101076 0.069478 0.063688 -0.100335 0.062003 0.018339 0.049017 -0.041411 0.036682 0.082125 0.026318 -0.064072 -0.028133 -0.032647 -0.127007 0.033066 0.134152 -0.116356 0.082419 0.062667 0.027915 -0.049086 -0.127482 0.066890 -0.078486 -0.066791 0.036334 -0.083030 0.001633 0.057211 -0.043539 -0.167628 0.125883 -0.000221 0.154945 0.114568 -0.008174 -0.016392 -0.000253 -0.152539 -0.066148 0.040155 -0.222222 -0.033413 0.051253 -0.109382 -0.087586 -0.102254 0.017127 -0.005661 0.112132 0.065831 -0.014187 0.005539 0.107522 -0.199350 -0.084392 0.085626 -0.113123 0.007563 -0.062188 -0.170332 -0.072667 -0.031564 0.106039 -0.049271 0.063404 -0.103694 -0.120784 0.027445 0.003387 -0.015973 -0.033552 0.088763 0.082679 -0.080631 -0.021115 0.071378 0.045012 0.010111 -0.102998 0.382137 0.051501 -0.170416 -0.176432 -0.091336 0.126382 0.158508 0.165986 0.027672 0.148947 0.054379
836 -0.133184 -0.095512 0.192222 -0.051389 0.066434 0.061349 -0.088084 -0.146348 -0.001313 -0.107067 0.049308 0.092097 0.035862 -0.092924 -0.212610 -0.049648 -0.009743 0.016243 -0.164252 0.119488 0.006625 -0.109647 0.053070 0.139019 -0.067400 -0.140143 -0.136739 -0.031054 0.091921 -0.057569 0.087349 0.039940 -0.005522 -0.181356 0.109367 0.081757 0.095916 0.103399 0.039451 -0.085489 0.085364 0.047939 0.057358 -0.070350 0.034241 0.063904 0.044818 -0.050651 -0.007331 -0.017267 -0.109180 0.019117 0.138305 -0.088651 0.058135 0.067285 0.043050 -0.048262 -0.119441 0.055839 -0.086725 -0.087639 0.033398 -0.062634 0.018453 0.077055 -0.058381 -0.192487 0.159607 -0.009054 0.146356 0.109533 -0.019454 -0.027018 0.014881 -0.150933 -0.043342 0.056129 -0.209770 -0.018674 0.077032 -0.081382 -0.083300 -0.082535 -0.015321 -0.013867 0.132168 0.067471 -0.011036 0.003134 0.105583 -0.241070 -0.065906 0.081771 -0.109299 0.042554 -0.087455 -0.200148 -0.078446 -0.020741 0.127560 -0.070548 0.056226 -0.051857 -0.110522 0.037949 0.007881 -0.053008 -0.044881 0.074534 0.071826 -0.059410 -0.004590 0.090445 0.040513 0.002860 -0.060832 0.399924 0.037040 -0.142781 -0.154749 -0.106592 0.151907 0.169397 0.176091 0.038881 0.147153 0.070223
911 -0.092591 -0.112484 0.166364 -0.048474 0.088117 0.023973 -0.070348 -0.109278 -0.018362 -0.089187 0.026963 0.084302 0.023691 -0.069356 -0.185993 0.003045 0.038132 0.003261 -0.155694 0.129921 -0.021437 -0.098374 0.071045 0.101228 -0.020783 -0.106416 -0.155803 -0.006229 0.075127 -0.055717 0.065862 0.038299 -0.020476 -0.212342 0.147388 0.091106 0.064081 0.093620 0.058542 -0.098213 0.067690 0.031738 0.030271 -0.061748 0.003075 0.079688 0.043889 -0.050992 -0.031399 -0.046490 -0.088100 0.047489 0.112156 -0.077202 0.085561 0.035520 0.067077 -0.050752 -0.104072 0.090891 -0.052385 -0.070660 0.053992 -0.076798 0.008966 0.020974 -0.051439 -0.162778 0.130247 -0.015182 0.151091 0.122649 -0.005026 -0.018263 0.009088 -0.153548 -0.059050 0.026573 -0.213270 -0.049074 0.068304 -0.102185 -0.075196 -0.099743 0.003196 0.015094 0.137629 0.059830 -0.022156 0.030096 0.095964 -0.234622 -0.093877 0.063901 -0.132052 0.054536 -0.041611 -0.192575 -0.037809 -0.038052 0.128430 -0.047075 0.063333 -0.108494 -0.118652 0.008283 -0.001752 -0.029270 -0.043876 0.069568 0.055478 -0.082065 -0.024593 0.073246 0.060715 0.000712 -0.116677 0.387725 0.040500 -0.213246 -0.160683 -0.071332 0.090108 0.189758 0.169616 0.051240 0.148719 0.064651
972 -0.131314 -0.112262 0.158841 -0.044573 0.095851 0.029310 -0.060107 -0.125021 0.004306 -0.099258 0.022012 0.089624 0.034765 -0.053233 -0.201738 -0.055692 0.004400 0.015115 -0.142234 0.099049 -0.026279 -0.083651 0.035808 0.113992 -0.029501 -0.103866 -0.125524 -0.027347 0.069805 -0.050426 0.054700 0.048253 -0.006001 -0.179918 0.135979 0.087030 0.124039 0.039649 0.062195 -0.112092 0.095595 0.036271 0.065740 -0.042166 0.043813 0.086245 0.022648 -0.081756 -0.049627 0.000127 -0.107428 0.018608 0.127033 -0.078841 0.073349 0.040595 0.010414 -0.036561 -0.093030 0.053944 -0.095737 -0.065722 0.047600 -0.066462 0.004414 0.056877 -0.061849 -0.167679 0.131772 0.011394 0.166386 0.134991 -0.012953 -0.006308 0.001899 -0.178726 -0.071576 0.060173 -0.219220 -0.023200 0.061701 -0.104210 -0.119878 -0.100791 0.012042 -0.027841 0.102925 0.041313 -0.015988 0.027561 0.093477 -0.210730 -0.066750 0.072800 -0.114757 0.008953 -0.079910 -0.160552 -0.085657 -0.015131 0.143191 0.011620 0.089361 -0.119015 -0.127929 0.036857 -0.011620 -0.026489 -0.088254 0.082713 0.049838 -0.093943 -0.008503 0.087578 0.041974 0.041220 -0.052828 0.343739 0.059561 -0.174367 -0.188441 -0.094150 0.155140 0.184523 0.216702 0.046839 0.221743 0.060105
1026 -0.106091 -0.129375 0.149789 -0.096335 0.132689 0.070837 -0.060848 -0.178008 -0.031984 -0.077239 0.057919 0.093992 0.036150 -0.082013 -0.186082 -0.034948 0.023468 0.015907 -0.138025 0.082406 0.029857 -0.045429 0.043050 0.109394 -0.016460 -0.124097 -0.138067 -0.024820 0.080243 -0.045294 0.117510 0.071469 0.008084 -0.223819 0.152257 0.079437 0.086926 0.093544 0.029915 -0.092671 0.110978 0.020145 0.043381 -0.083635 -0.002881 0.044638 0.030916 -0.084615 -0.019025 -0.041228 -0.111943 0.042024 0.078460 -0.079606 0.048763 0.012312 0.044824 -0.066881 -0.097095 0.095971 -0.071154 -0.080077 0.084719 -0.074407 0.008147 0.044243 -0.047433 -0.139102 0.108570 -0.018756 0.129732 0.092259 -0.001994 -0.012330 -0.003302 -0.157534 -0.039249 0.023161 -0.189444 -0.030349 0.020842 -0.110032 -0.083203 -0.104345 0.029057 0.012725 0.109067 0.077491 -0.006720 0.030624 0.082298 -0.231963 -0.094480 0.069666 -0.091273 0.051390 -0.055732 -0.183353 -0.047635 -0.027205 0.087163 -0.029781 0.098653 -0.147352 -0.124164 0.018400 -0.007850 -0.087228 -0.049640 0.086861 0.061924 -0.050748 -0.030671 0.068262 0.038944 0.015763 -0.096907 0.365252 0.059304 -0.197086 -0.204068 -0.116835 0.136041 0.196137 0.187570 0.049179 0.150919 0.078921
551 -0.093381 -0.109313 0.119886 -0.094594 0.092088 0.055412 -0.087331 -0.144445 -0.023706 -0.116432 0.052088 0.105430 0.005417 -0.080845 -0.176059 -0.046107 0.017262 -0.000233 -0.151903 0.106657 -0.021771 -0.055047 0.036304 0.075131 -0.029385 -0.146987 -0.131603 -0.033867 0.074716 -0.059934 0.085588 0.063840 0.035390 -0.264554 0.129907 0.116818 0.116172 0.078240 0.042799 -0.074512 0.152053 0.025698 0.022766 -0.085492 0.047499 0.079146 0.020454 -0.090497 -0.024587 -0.004074 -0.083203 0.023756 0.107911 -0.103950 0.059177 0.018127 0.038408 -0.030787 -0.112225 0.079577 -0.051855 -0.030495 0.045768 -0.076129 0.002523 0.054482 -0.037469 -0.120478 0.078300 0.013794 0.171338 0.138649 -0.010668 -0.014847 -0.009557 -0.136481 -0.058871 0.029622 -0.212893 -0.056436 0.040472 -0.133410 -0.055766 -0.118331 0.041572 -0.016376 0.098139 0.075568 -0.010012 -0.013266 0.090190 -0.209655 -0.089759 0.084329 -0.112917 0.018924 -0.052618 -0.157920 -0.058580 -0.008665 0.102277 -0.018496 0.092315 -0.081604 -0.140360 0.021095 -0.022926 -0.038115 -0.040613 0.098571 0.050008 -0.081724 -0.041449 0.077822 0.045077 0.002620 -0.101704 0.340540 0.060003 -0.165744 -0.216706 -0.065576 0.132482 0.182118 0.189229 0.043165 0.140417 0.067050
553 -0.101397 -0.118156 0.147948 -0.062423 0.111000 0.036701 -0.101838 -0.145362 0.002634 -0.118956 0.023174 0.136151 0.022217 -0.055604 -0.219308 -0.025221 -0.004147 -0.008164 -0.144945 0.096452 -0.031838 -0.074229 0.066539 0.105282 -0.022802 -0.121452 -0.137013 -0.002386 0.081422 -0.085965 0.065194 0.017939 0.023326 -0.239802 0.118857 0.049015 0.074236 0.069003 0.057630 -0.066423 0.024527 0.012676 0.021484 -0.026304 0.013820 0.091871 0.005663 -0.057856 -0.026235 0.017955 -0.115204 -0.002556 0.125502 -0.069098 0.071026 0.041213 0.040002 -0.043661 -0.100642 0.091753 -0.082316 -0.058199 0.052928 -0.055739 0.019674 0.046382 -0.048427 -0.139833 0.130810 -0.003109 0.165892 0.142296 0.007083 -0.032517 0.021382 -0.150774 -0.084041 0.025223 -0.237938 -0.019268 0.050497 -0.115552 -0.071107 -0.112404 0.004360 -0.020462 0.102648 0.048619 0.002214 0.010069 0.095272 -0.209422 -0.070498 0.084252 -0.102740 0.032765 -0.069623 -0.178267 -0.060412 -0.012572 0.126882 -0.023295 0.079780 -0.098668 -0.117842 0.007374 -0.009014 -0.024368 -0.054905 0.088287 0.049888 -0.103048 -0.048540 0.087420 0.020955 -0.005372 -0.102286 0.334902 0.041935 -0.163865 -0.202272 -0.066465 0.125884 0.209857 0.209525 0.052613 0.194740 0.068190
550 -0.115023 -0.105059 0.166349 -0.080406 0.135829 0.048962 -0.080328 -0.149646 0.000384 -0.134869 0.065228 0.105257 0.035383 -0.079403 -0.184694 -0.045222 0.011461 -0.006402 -0.178670 0.115669 -0.010729 -0.096459 0.039817 0.124329 -0.023328 -0.132228 -0.148547 -0.016889 0.096892 -0.043359 0.098546 0.025036 0.016753 -0.199092 0.133991 0.086927 0.112450 0.081059 0.050000 -0.080853 0.066336 0.016275 0.049212 -0.036622 0.031157 0.082405 0.015266 -0.039892 -0.023581 -0.029622 -0.112387 0.041530 0.144639 -0.089154 0.071070 0.049746 0.044153 -0.046009 -0.084392 0.084825 -0.087435 -0.050780 0.028653 -0.062722 0.000061 0.077589 -0.049990 -0.152365 0.111602 0.017251 0.171416 0.095101 -0.001881 -0.030268 0.018958 -0.147246 -0.041930 0.036617 -0.227357 -0.045667 0.016589 -0.101555 -0.083699 -0.104026 0.039098 -0.007214 0.100157 0.072972 -0.011353 -0.006129 0.110908 -0.173822 -0.071873 0.081504 -0.118474 0.032765 -0.074021 -0.170213 -0.060053 -0.008158 0.109403 -0.053479 0.080313 -0.090501 -0.144332 0.017285 0.002608 -0.022530 -0.044020 0.082813 0.056691 -0.077242 -0.033830 0.080565 0.063168 0.009606 -0.105422 0.363906 0.058102 -0.174040 -0.188794 -0.090380 0.131390 0.175163 0.173770 0.040324 0.136889 0.038916
554 -0.141709 -0.118405 0.155534 -0.082532 0.140210 0.047417 -0.101221 -0.137218 -0.000103 -0.114570 0.082825 0.122242 0.013468 -0.070186 -0.163077 -0.047618 0.021728 -0.021984 -0.206652 0.102651 -0.025279 -0.093216 0.068817 0.131895 -0.039031 -0.147817 -0.139074 -0.044224 0.064009 -0.058346 0.084266 0.033736 0.015442 -0.218498 0.141083 0.075510 0.085054 0.083583 0.030518 -0.062235 0.066265 0.008675 0.019696 -0.057590 0.026238 0.070157 0.010436 -0.055310 -0.064735 -0.010033 -0.079474 0.014523 0.163865 -0.125539 0.069833 0.036306 0.049920 -0.014078 -0.133733 0.079080 -0.094297 -0.063782 0.066341 -0.065852 0.005965 0.086694 -0.019135 -0.158446 0.106690 0.013485 0.175044 0.108282 -0.012170 -0.040333 0.008695 -0.169042 -0.030403 0.057031 -0.213364 -0.043982 0.029519 -0.093892 -0.082764 -0.098994 0.023270 -0.009499 0.118106 0.081024 -0.006720 -0.018029 0.114293 -0.182533 -0.090610 0.069942 -0.119051 -0.007594 -0.075241 -0.179355 -0.051545 0.002406 0.089829 -0.053239 0.068189 -0.071224 -0.109889 0.042887 -0.005567 0.003585 -0.036975 0.087023 0.034651 -0.072706 -0.020819 0.035547 0.046295 -0.003205 -0.108602 0.338046 0.059318 -0.148308 -0.182179 -0.078736 0.168833 0.212168 0.189084 0.035429 0.154416 0.062643
552 -0.094689 -0.134000 0.150666 -0.087742 0.098452 0.053346 -0.080944 -0.146047 -0.014116 -0.100097 0.050322 0.129275 0.018742 -0.068828 -0.199972 -0.057129 0.007239 -0.014966 -0.178451 0.129819 -0.046035 -0.101545 0.056195 0.122377 -0.057565 -0.145445 -0.124340 -0.029814 0.110828 -0.089128 0.099261 0.033997 0.023736 -0.237728 0.132921 0.059982 0.119223 0.068864 0.069036 -0.068988 0.131653 0.000586 0.054827 -0.092853 0.027565 0.114266 0.007733 -0.071652 -0.037985 -0.013086 -0.083428 0.023918 0.149347 -0.109236 0.041636 0.048985 0.068846 -0.028280 -0.102416 0.086322 -0.065508 -0.075033 0.074036 -0.048349 0.018881 0.070489 -0.038299 -0.158535 0.090181 0.004305 0.159897 0.114178 -0.007831 -0.026111 -0.002110 -0.183681 -0.061806 0.034631 -0.211215 -0.066567 0.013518 -0.080947 -0.095632 -0.075643 0.015373 0.017553 0.088800 0.057039 0.007277 0.006554 0.092661 -0.181132 -0.073464 0.067367 -0.109909 -0.007365 -0.077895 -0.193101 -0.075562 -0.019232 0.137055 -0.009516 0.043743 -0.077497 -0.103279 0.056018 -0.004002 -0.039020 -0.046721 0.105585 0.014350 -0.098586 -0.005836 0.074729 0.070484 -0.002421 -0.052411 0.327425 0.060576 -0.151237 -0.208123 -0.062635 0.150936 0.203558 0.193755 0.073024 0.168396 0.055084
555 -0.117128 -0.124556 0.155837 -0.084742 0.113234 0.067260 -0.083608 -0.142053 -0.011524 -0.117507 0.049322 0.111452 0.019483 -0.081967 -0.191764 -0.064985 -0.006416 -0.014191 -0.162238 0.114141 -0.028153 -0.081619 0.042112 0.112267 -0.045872 -0.134865 -0.109710 -0.039253 0.064109 -0.051447 0.074385 0.051883 0.013014 -0.205687 0.111442 0.074800 0.117275 0.066342 0.021162 -0.086329 0.091318 0.007853 0.006592 -0.040019 0.026063 0.065128 0.025163 -0.046746 -0.028925 0.000179 -0.095865 0.013923 0.135659 -0.097416 0.070731 0.045896 0.042359 -0.018248 -0.114747 0.068442 -0.085362 -0.051166 0.043736 -0.063659 0.013724 0.077988 -0.034346 -0.153274 0.087826 -0.002169 0.164689 0.103660 -0.021261 -0.037567 0.013496 -0.143228 -0.053454 0.028622 -0.204556 -0.057777 0.039821 -0.098760 -0.095890 -0.110481 0.006080 -0.008196 0.096913 0.088590 -0.009297 0.012274 0.109742 -0.203282 -0.108007 0.080665 -0.114152 0.020507 -0.072013 -0.204327 -0.066373 -0.018315 0.114638 -0.019445 0.077364 -0.075444 -0.122868 0.029790 -0.009777 -0.011801 -0.044182 0.063792 0.047118 -0.057574 -0.019747 0.059310 0.067788 0.019263 -0.114978 0.359757 0.056725 -0.151456 -0.204815 -0.090276 0.157062 0.221214 0.203858 0.028817 0.162105 0.059977
557 -0.098824 -0.141068 0.165001 -0.088798 0.129529 0.065979 -0.048785 -0.130447 -0.006777 -0.101695 0.054035 0.101801 0.013722 -0.048014 -0.155889 -0.023014 0.013589 0.001184 -0.125357 0.098017 -0.009625 -0.076900 0.059797 0.105206 -0.016003 -0.113433 -0.134743 -0.016060 0.059989 -0.013472 0.072630 0.048728 -0.018237 -0.173823 0.117353 0.091534 0.056437 0.076977 0.042770 -0.091903 0.056706 0.008902 -0.008742 -0.022434 0.020241 0.045112 0.012469 -0.084138 -0.029451 -0.055201 -0.099127 0.045554 0.121276 -0.120668 0.107109 0.027684 0.048372 -0.049310 -0.156287 0.080106 -0.092654 -0.038636 0.039647 -0.102170 0.038852 0.081347 -0.023928 -0.103402 0.075258 0.006978 0.164491 0.112564 0.002197 -0.041928 -0.023918 -0.185867 -0.035943 0.051104 -0.245678 -0.046616 0.035433 -0.064418 -0.057287 -0.079248 0.017896 -0.003142 0.117203 0.088705 -0.052931 -0.006747 0.129459 -0.212201 -0.108463 0.083876 -0.147530 0.001247 -0.037319 -0.153674 -0.065353 -0.031553 0.091236 -0.022675 0.077346 -0.126914 -0.122935 0.017789 0.015665 0.019403 -0.042798 0.068294 0.054918 -0.082029 -0.049816 0.029151 0.081220 0.018262 -0.140323 0.340088 0.039726 -0.224441 -0.194894 -0.109125 0.107610 0.209785 0.203906 0.050198 0.136174 0.039294
558 -0.101105 -0.115197 0.161965 -0.112892 0.126881 0.093899 -0.104292 -0.180460 -0.031377 -0.114076 0.033392 0.110307 0.029187 -0.071406 -0.180808 -0.020630 -0.012511 0.026196 -0.121601 0.093446 0.009820 -0.034384 0.055647 0.099723 -0.034496 -0.101330 -0.143989 -0.010100 0.060373 -0.029556 0.103271 0.038730 0.029115 -0.188607 0.136047 0.084088 0.053358 0.086364 0.021975 -0.073760 0.043650 0.027397 0.036216 -0.042097 0.018677 0.021851 0.030724 -0.066744 -0.031237 -0.038908 -0.105907 0.007079 0.094378 -0.073476 0.051286 0.022752 -0.000211 -0.058370 -0.111739 0.092956 -0.113045 -0.064453 0.028822 -0.065339 0.028342 0.058041 -0.030695 -0.118403 0.152093 -0.010896 0.163401 0.120309 -0.005141 -0.046047 0.001533 -0.168385 -0.026424 0.044821 -0.241997 -0.008795 0.020559 -0.076589 -0.060249 -0.097238 0.003181 -0.024601 0.154153 0.103155 -0.015201 -0.010940 0.122002 -0.235377 -0.089391 0.048834 -0.133299 0.039985 -0.078936 -0.174415 -0.066061 -0.027119 0.141509 -0.063791 0.120797 -0.121057 -0.107984 0.032346 -0.007171 -0.006284 -0.069675 0.078924 0.079237 -0.088945 -0.007050 0.060802 0.096097 -0.004841 -0.115571 0.356700 0.048889 -0.179268 -0.201734 -0.100504 0.148160 0.157387 0.198159 0.040911 0.125427 0.081808
556 -0.109257 -0.122576 0.121350 -0.057064 0.085652 0.047478 -0.072126 -0.133449 -0.008184 -0.127780 0.042574 0.122011 -0.014650 -0.035101 -0.145925 -0.019316 0.008612 -0.015720 -0.102669 0.123914 -0.011374 -0.056984 0.069419 0.102237 0.006569 -0.110384 -0.123098 -0.023031 0.051381 -0.027415 0.081694 0.069482 0.009263 -0.250294 0.125657 0.058327 0.063195 0.102370 0.030273 -0.089057 0.086368 -0.011428 -0.002625 -0.031066 0.021565 0.071392 0.006420 -0.063352 -0.013811 -0.009756 -0.093490 0.024383 0.116132 -0.080000 0.080107 0.001567 0.025968 -0.041835 -0.118699 0.072153 -0.116008 -0.068501 0.041662 -0.054865 0.042094 0.064257 -0.040676 -0.114209 0.087434 0.016320 0.156586 0.155239 -0.008669 -0.046799 0.031955 -0.183018 -0.062484 0.036325 -0.217395 -0.037413 0.056757 -0.094168 -0.061316 -0.099386 0.017112 -0.037945 0.145590 0.076357 -0.018505 0.045036 0.111501 -0.235054 -0.122950 0.039695 -0.140345 0.012181 -0.034367 -0.168665 -0.061954 -0.039920 0.112790 -0.034241 0.053612 -0.102841 -0.104378 -0.006002 -0.002321 0.022843 -0.035105 0.091705 0.084973 -0.101907 -0.049748 0.063762 0.050443 0.006685 -0.135269 0.341203 0.031858 -0.217382 -0.171595 -0.059797 0.104753 0.199127 0.189302 0.037271 0.181564 0.055298
559 -0.113549 -0.138788 0.111620 -0.101787 0.110225 0.054007 -0.073877 -0.133881 -0.021390 -0.119978 0.067697 0.132900 0.015664 -0.074387 -0.169083 -0.046204 0.041524 0.006938 -0.122379 0.092301 -0.012131 -0.047951 0.075601 0.110053 -0.006677 -0.124243 -0.135922 -0.021276 0.062410 -0.027908 0.097027 0.067816 0.034019 -0.229750 0.128469 0.072563 0.074887 0.085073 0.020620 -0.064798 0.081350 -0.021250 0.016198 -0.045458 0.004497 0.065642 0.015116 -0.081742 -0.037793 -0.021740 -0.083231 0.018623 0.104321 -0.074640 0.057244 0.014603 0.009221 -0.017422 -0.101619 0.082969 -0.081252 -0.053514 0.050515 -0.064624 0.028150 0.065972 -0.018937 -0.105984 0.097532 0.004611 0.166465 0.124348 -0.025070 -0.021640 0.006389 -0.177948 -0.042050 0.040151 -0.215456 -0.052916 0.025898 -0.117689 -0.068397 -0.114400 0.019284 -0.030905 0.112652 0.101054 -0.021058 0.021530 0.119095 -0.254731 -0.101946 0.061239 -0.113763 0.042124 -0.060622 -0.185883 -0.033735 -0.027400 0.120235 -0.046340 0.093033 -0.109065 -0.124371 0.016086 -0.003730 -0.004042 -0.049138 0.076157 0.062309 -0.071342 -0.036866 0.042725 0.072594 0.006543 -0.102759 0.345815 0.066961 -0.176347 -0.218338 -0.088835 0.139093 0.208673 0.214646 0.038460 0.155127 0.070028
881 -0.097228 -0.134246 0.141848 -0.088662 0.119228 0.061717 -0.091962 -0.165853 -0.041900 -0.109709 0.052531 0.132137 0.013404 -0.053177 -0.156070 -0.028334 -0.004792 -0.006459 -0.139955 0.105189 0.004459 -0.078967 0.055079 0.084126 -0.015179 -0.145217 -0.159542 -0.048843 0.065807 -0.019205 0.102545 0.044047 0.041358 -0.243941 0.125266 0.054439 0.034349 0.149797 0.011746 -0.088992 0.088672 -0.030418 -0.003332 -0.094955 0.004502 0.046385 0.048892 -0.072449 -0.031797 -0.027701 -0.073278 0.031063 0.095103 -0.095583 0.057174 0.020480 0.031461 -0.062256 -0.101181 0.071699 -0.104229 -0.077936 0.046279 -0.061323 0.054916 0.058465 -0.023490 -0.131280 0.141379 0.002975 0.154932 0.159543 0.005485 -0.055829 0.016756 -0.213728 -0.050829 0.059499 -0.191910 -0.031414 0.013849 -0.086719 -0.072129 -0.074401 0.004397 0.001698 0.148243 0.080032 0.006063 0.010970 0.099650 -0.205969 -0.096956 0.063848 -0.137905 0.037325 -0.041336 -0.195013 -0.041450 -0.024757 0.106519 -0.038370 0.083316 -0.086437 -0.132948 0.021901 -0.020425 -0.000053 -0.038987 0.100721 0.064676 -0.059359 -0.043568 0.087926 0.082480 -0.035503 -0.135826 0.322305 0.004812 -0.172562 -0.196001 -0.090222 0.095286 0.162329 0.208185 0.055382 0.143457 0.066345
876 -0.103601 -0.113474 0.121928 -0.087539 0.088760 0.051505 -0.093115 -0.137996 -0.008078 -0.122444 0.062054 0.139002 0.016209 -0.044016 -0.172919 -0.011755 0.027134 0.025670 -0.131157 0.119065 -0.000387 -0.100995 0.059742 0.104286 -0.033921 -0.104551 -0.157567 -0.034519 0.068061 -0.037962 0.060237 0.081880 0.026579 -0.233575 0.133184 0.045529 0.051208 0.120877 0.026749 -0.070762 0.095937 -0.004654 0.003648 -0.080047 0.011210 0.105160 0.032763 -0.076771 -0.026375 0.007492 -0.091520 0.009728 0.096781 -0.094539 0.080209 0.049644 0.028410 -0.063356 -0.128793 0.058311 -0.116571 -0.068743 0.045961 -0.030488 0.038520 0.069377 -0.042470 -0.133727 0.132078 -0.002002 0.172588 0.176293 -0.010381 -0.018003 0.040239 -0.186288 -0.071352 0.050554 -0.217802 -0.056550 0.032903 -0.110381 -0.070362 -0.092606 0.008867 -0.022101 0.114682 0.063387 -0.002869 0.048920 0.114084 -0.245383 -0.086202 0.064538 -0.143076 0.018044 -0.070338 -0.183457 -0.023155 -0.024464 0.118698 -0.060353 0.071599 -0.085776 -0.110808 -0.000776 0.008421 0.009074 -0.050230 0.082333 0.068749 -0.087672 -0.044295 0.067896 0.059326 0.016582 -0.085058 0.344093 0.051883 -0.168404 -0.181460 -0.076979 0.106325 0.178093 0.183555 0.043917 0.146252 0.060480
882 -0.146136 -0.115505 0.135103 -0.093281 0.127234 0.093090 -0.107222 -0.136180 -0.037364 -0.119820 0.016048 0.110171 0.019980 -0.058293 -0.141157 0.006299 0.005021 0.024005 -0.115298 0.044926 -0.026898 -0.046702 0.041194 0.090064 0.011985 -0.105036 -0.144301 0.024612 0.065657 -0.028389 0.062637 0.060652 0.001054 -0.159679 0.127788 0.064869 0.004637 0.143767 0.015227 -0.083072 0.066272 -0.004130 -0.015312 -0.043521 0.003059 0.065708 0.040899 -0.084331 -0.036029 -0.047578 -0.124105 0.015859 0.094757 -0.110858 0.129050 0.066029 -0.017390 -0.094583 -0.138999 0.060348 -0.133165 -0.108622 0.065366 -0.039088 0.015639 0.080858 -0.019777 -0.148758 0.115927 -0.025172 0.173463 0.163036 0.005826 -0.037538 0.057039 -0.204876 -0.071228 0.007728 -0.210292 -0.037043 0.051351 -0.114785 -0.122405 -0.107128 -0.008210 0.003132 0.164842 0.109435 -0.032306 0.064573 0.147864 -0.295354 -0.133210 0.029738 -0.130774 0.035041 -0.067122 -0.164216 0.001318 -0.052484 0.121644 -0.089128 0.110725 -0.136301 -0.131208 0.042107 0.015424 0.037663 -0.093814 0.058859 0.075239 -0.070085 -0.052993 0.060722 0.064633 -0.020338 -0.127468 0.370446 0.058830 -0.165225 -0.186513 -0.071892 0.080747 0.191488 0.195135 -0.017078 0.184690 0.075728
880 -0.089547 -0.116223 0.153429 -0.073698 0.111794 0.086474 -0.108726 -0.202576 -0.036600 -0.124537 0.011579 0.132444 0.017282 -0.064607 -0.208562 -0.012629 -0.007425 -0.008430 -0.150376 0.121609 -0.016173 -0.062556 0.056217 0.077558 -0.035002 -0.115536 -0.140232 -0.024470 0.073643 -0.065222 0.094514 0.042317 0.022804 -0.229499 0.118119 0.078269 0.059058 0.103846 0.016459 -0.075986 0.060851 0.011538 0.023993 -0.027101 0.023966 0.074162 0.024290 -0.052381 -0.028549 -0.021688 -0.096907 0.002728 0.099824 -0.088769 0.056934 0.056633 0.017896 -0.055062 -0.093955 0.088927 -0.079937 -0.050030 0.044118 -0.054044 0.043414 0.090734 -0.023908 -0.143288 0.127259 0.002809 0.195189 0.133308 0.026953 -0.045367 0.049409 -0.167192 -0.056426 0.038732 -0.232939 -0.033330 0.042777 -0.089109 -0.071234 -0.092645 0.015228 -0.022699 0.125332 0.062978 -0.015076 -0.003405 0.086008 -0.246363 -0.098090 0.064298 -0.094680 0.033959 -0.055653 -0.157034 -0.053436 -0.014106 0.106074 -0.043915 0.084266 -0.080534 -0.102527 0.022329 -0.006872 0.005997 -0.058127 0.087864 0.061766 -0.081970 -0.023503 0.083148 0.050409 -0.013341 -0.128814 0.344959 0.022530 -0.150356 -0.164410 -0.064381 0.119473 0.175525 0.188472 0.045336 0.142114 0.076980
878 -0.105465 -0.121277 0.141220 -0.057290 0.082365 0.040569 -0.101367 -0.168877 -0.028743 -0.120322 0.023479 0.127421 0.033001 -0.038559 -0.161141 -0.027139 0.027916 0.027382 -0.121711 0.110872 0.003256 -0.088414 0.017898 0.055398 -0.069654 -0.107835 -0.146938 -0.038650 0.072636 -0.071413 0.073607 0.063965 0.023456 -0.217440 0.149081 0.057619 0.040327 0.110342 0.031162 -0.096906 0.101294 0.015907 0.020602 -0.104736 0.034133 0.099622 0.039504 -0.070134 -0.023245 0.001260 -0.077885 -0.014229 0.117966 -0.109724 0.056775 0.048971 0.035828 -0.063617 -0.112430 0.025962 -0.094618 -0.053996 0.050366 -0.007983 0.055513 0.055071 -0.053527 -0.164777 0.147969 0.011322 0.184906 0.130365 0.009684 -0.022378 0.041426 -0.182748 -0.077113 0.068025 -0.221752 -0.033359 0.067557 -0.126747 -0.087031 -0.067136 0.004619 -0.006209 0.134368 0.050888 0.000261 0.029021 0.107613 -0.232042 -0.069743 0.073547 -0.135089 0.015458 -0.060407 -0.175956 -0.064890 -0.019209 0.126341 -0.023518 0.091289 -0.069909 -0.146446 0.010012 -0.005791 0.007999 -0.074358 0.122820 0.076600 -0.155334 -0.003669 0.117680 0.041071 0.003467 -0.109391 0.354529 0.026937 -0.185534 -0.167194 -0.047172 0.105234 0.192945 0.184990 0.068639 0.172914 0.070646
883 -0.085144 -0.131759 0.107777 -0.094665 0.101934 0.042798 -0.132009 -0.167397 -0.044074 -0.131735 0.059588 0.147113 0.025766 -0.098047 -0.253642 0.022609 0.031664 0.004278 -0.149178 0.144316 -0.058531 -0.083769 0.052990 0.095444 -0.061891 -0.122348 -0.132269 -0.024034 0.084520 -0.087491 0.058604 0.060351 0.053056 -0.235482 0.156833 0.055846 0.067531 0.060640 0.031338 -0.064982 0.052527 0.001924 0.022614 -0.074128 0.003757 0.083063 0.029904 -0.045402 -0.034770 0.005817 -0.068734 -0.010735 0.106250 -0.063783 0.080063 0.041073 0.006146 -0.036310 -0.110336 0.071538 -0.101382 -0.067637 0.066298 -0.066531 -0.010781 0.054769 -0.026637 -0.140592 0.116312 -0.041223 0.197177 0.145787 -0.011840 0.032784 0.029846 -0.126399 -0.053344 0.052241 -0.199700 -0.061809 0.063586 -0.130230 -0.087430 -0.098462 0.007772 -0.002915 0.099461 0.057523 -0.029678 0.050368 0.112955 -0.259473 -0.089182 0.045559 -0.120065 0.025823 -0.068569 -0.217544 -0.019009 -0.019675 0.115309 -0.060546 0.092284 -0.088724 -0.107763 0.039490 0.001277 -0.014160 -0.056392 0.072125 0.057118 -0.082284 -0.019887 0.069245 0.063221 0.015853 -0.086050 0.343711 0.067983 -0.145785 -0.162377 -0.042951 0.110075 0.188809 0.188214 0.033921 0.126597 0.069016
884 -0.100904 -0.138009 0.127895 -0.044720 0.070659 0.069034 -0.062308 -0.130857 0.000991 -0.076544 0.028976 0.102869 -0.007434 -0.059506 -0.185629 0.001101 0.021425 0.023859 -0.100498 0.122247 0.022132 -0.055236 0.056139 0.106550 0.001209 -0.088043 -0.131553 -0.011701 0.048026 -0.051453 0.091670 0.053970 0.018445 -0.233909 0.149834 0.106682 0.052864 0.083789 0.049929 -0.103364 0.078750 0.021131 -0.003871 -0.020724 0.009582 0.052373 -0.014778 -0.033536 -0.008411 -0.023809 -0.112461 -0.004399 0.070025 -0.048721 0.056874 -0.030714 0.002351 -0.027079 -0.104133 0.086279 -0.109437 -0.038428 0.040730 -0.111733 0.055962 0.072030 -0.064964 -0.119154 0.126536 0.007472 0.160469 0.167957 -0.001778 -0.000820 0.023847 -0.165904 -0.059188 0.038628 -0.225474 -0.030772 0.092340 -0.074795 -0.054549 -0.096269 0.007754 -0.051961 0.139699 0.056773 -0.051245 0.025516 0.105260 -0.249093 -0.101369 0.069755 -0.138887 0.023431 -0.056714 -0.122682 -0.075139 -0.060324 0.098488 -0.024524 0.094037 -0.100066 -0.102028 -0.000071 -0.007961 -0.019200 -0.072571 0.064501 0.072524 -0.092410 -0.013399 0.065530 0.005917 0.067836 -0.104762 0.345223 0.044024 -0.192896 -0.190775 -0.093076 0.095774 0.205325 0.222712 0.068058 0.174350 0.072569
877 -0.071259 -0.121976 0.091559 -0.088588 0.072446 0.073661 -0.107487 -0.121732 -0.018818 -0.096795 0.028255 0.083510 0.005096 -0.070071 -0.176882 0.008248 0.036730 0.001064 -0.117764 0.105851 0.010882 -0.057741 0.056356 0.077531 -0.015887 -0.106319 -0.133407 -0.036455 0.066147 -0.048811 0.091812 0.078203 0.048925 -0.234490 0.146264 0.087368 0.066335 0.098177 0.019383 -0.068274 0.118811 -0.002074 0.009417 -0.097603 0.030085 0.078074 0.024807 -0.107519 -0.022738 -0.026792 -0.114467 0.052363 0.069853 -0.103706 0.073978 0.027229 0.030206 -0.057964 -0.106423 0.073287 -0.088534 -0.073251 0.058640 -0.077227 0.009030 0.052076 -0.060732 -0.108645 0.127004 -0.007956 0.165798 0.177182 -0.001584 0.006313 -0.010773 -0.177427 -0.059543 0.039421 -0.221498 -0.049438 0.069167 -0.086647 -0.062637 -0.091004 0.039616 0.006648 0.124724 0.074046 -0.027468 0.054691 0.103934 -0.255697 -0.128070 0.048850 -0.141113 0.038755 -0.022244 -0.207858 -0.045173 -0.041648 0.101070 -0.033854 0.090777 -0.107347 -0.095000 0.032707 0.004007 -0.032993 -0.044826 0.070109 0.085830 -0.075859 -0.038155 0.085551 0.073549 0.000803 -0.108912 0.353337 0.051937 -0.175603 -0.160395 -0.057850 0.086921 0.192374 0.177798 0.051500 0.124734 0.102926
879 -0.126227 -0.108288 0.136812 -0.014952 0.103738 0.045959 -0.103816 -0.195323 -0.014655 -0.119151 0.035752 0.113235 0.002580 -0.058119 -0.210011 -0.043881 -0.010269 0.029560 -0.107435 0.109852 -0.012782 -0.023944 0.072725 0.098596 -0.014843 -0.135233 -0.132766 -0.060216 0.075460 -0.045705 0.079248 0.064846 0.011654 -0.241641 0.135574 0.087196 0.073896 0.064620 0.031899 -0.098152 0.080672 -0.003666 0.002856 -0.040465 0.008153 0.054841 0.004671 -0.087836 -0.018221 -0.012501 -0.106635 0.000436 0.089001 -0.060786 0.077759 0.030986 0.013898 -0.035312 -0.094045 0.075264 -0.125118 -0.047753 0.040572 -0.043003 0.045358 0.051685 -0.066635 -0.161015 0.155664 -0.016670 0.190023 0.166376 -0.008425 -0.007322 0.025752 -0.149740 -0.048517 0.014582 -0.250758 -0.042596 0.077549 -0.098628 -0.085584 -0.115481 0.004800 -0.046251 0.167485 0.062505 -0.008230 0.033994 0.111336 -0.235631 -0.076735 0.082533 -0.120665 0.020182 -0.050991 -0.141330 -0.056034 -0.025190 0.101383 -0.028919 0.100620 -0.116910 -0.096587 0.000730 -0.018296 -0.016857 -0.060466 0.096048 0.079846 -0.097116 -0.028186 0.100434 0.011567 0.031902 -0.079678 0.353106 0.040092 -0.157991 -0.168786 -0.070267 0.101970 0.165340 0.151276 0.015330 0.134123 0.064297
1021 -0.142641 -0.104243 0.153331 -0.044571 0.101025 0.054138 -0.082702 -0.144990 -0.021213 -0.115895 0.032998 0.099504 0.021736 -0.069326 -0.200958 -0.022413 0.006606 -0.037581 -0.179036 0.155595 -0.032657 -0.076487 0.087820 0.081364 -0.033519 -0.089444 -0.144414 -0.022576 0.042447 -0.062473 0.081778 0.044098 -0.011217 -0.202579 0.133021 0.048947 0.056374 0.087389 0.017834 -0.078762 0.095169 0.054153 0.035329 -0.078790 0.030138 0.049120 0.037538 -0.085956 -0.028140 -0.021537 -0.090699 0.034621 0.087837 -0.066723 0.068115 0.033623 0.008436 -0.050757 -0.131484 0.065325 -0.088303 -0.034371 0.078870 -0.048293 0.010240 0.047307 -0.017565 -0.160410 0.115909 -0.022166 0.172309 0.118085 0.000211 -0.011241 0.058389 -0.179024 -0.032994 0.040712 -0.192083 -0.030697 0.052355 -0.143813 -0.102706 -0.089299 -0.006993 -0.030823 0.139253 0.070915 -0.021321 0.033500 0.075006 -0.215066 -0.107649 0.052061 -0.089910 0.038163 -0.043786 -0.175992 -0.049491 -0.020984 0.081517 -0.038652 0.100127 -0.110207 -0.099977 0.021497 -0.020035 -0.009029 -0.046152 0.057190 0.076513 -0.064298 -0.023611 0.047008 0.064642 0.025738 -0.139726 0.383120 0.017257 -0.188089 -0.210979 -0.062298 0.129490 0.138734 0.168139 0.019427 0.174444 0.063874
1178 -0.107852 -0.139987 0.075821 -0.061301 0.067567 0.019706 -0.062801 -0.078266 -0.026882 -0.126569 0.075958 0.114910 0.012468 -0.045166 -0.152811 0.013553 0.036429 0.009122 -0.121116 0.127251 -0.005120 -0.058435 0.086139 0.079396 0.010493 -0.099416 -0.181114 -0.018322 0.030162 -0.041747 0.058314 0.054233 0.033245 -0.261068 0.130856 0.097664 0.049746 0.068762 0.045381 -0.105375 0.105225 0.012182 0.014564 -0.087968 0.032065 0.086280 0.027531 -0.049917 -0.052282 -0.012978 -0.066898 0.054690 0.055735 -0.068751 0.067008 -0.008409 0.010374 -0.027525 -0.128263 0.068350 -0.101826 -0.029357 0.060923 -0.113964 0.024860 0.020093 -0.029326 -0.094638 0.108204 0.004443 0.149951 0.153668 0.006598 -0.000917 0.021577 -0.172190 -0.065853 0.060809 -0.200191 -0.068829 0.072574 -0.136774 -0.041518 -0.124598 0.041930 -0.063510 0.161825 0.053718 -0.030661 0.006884 0.103713 -0.247376 -0.138443 0.041786 -0.167603 0.020210 -0.026682 -0.154197 -0.044074 -0.035186 0.083132 -0.021466 0.095458 -0.120937 -0.096954 -0.013555 -0.002001 0.037513 -0.039679 0.086231 0.067132 -0.090160 -0.050357 0.042309 0.034533 0.017976 -0.128183 0.319163 0.070904 -0.221146 -0.200822 -0.045542 0.085799 0.172057 0.239204 0.054653 0.161669 0.039172
885 -0.129190 -0.122319 0.133392 -0.058091 0.110147 0.056285 -0.082620 -0.139012 -0.007226 -0.096444 0.052303 0.105251 0.010492 -0.043008 -0.181460 -0.015553 0.017145 0.035813 -0.171263 0.102676 -0.003140 -0.076815 0.061679 0.076259 0.006511 -0.122955 -0.141651 -0.028208 0.045672 -0.048570 0.083185 0.063231 0.003808 -0.195556 0.132566 0.048355 0.035106 0.110124 0.021392 -0.093275 0.081586 -0.005796 0.009864 -0.046716 0.004326 0.063396 0.048131 -0.040611 -0.046491 -0.033391 -0.098592 0.017105 0.065677 -0.066186 0.063889 0.041531 0.019179 -0.035142 -0.119979 0.061258 -0.080518 -0.039337 0.051865 -0.087140 0.037886 0.038336 -0.040897 -0.147808 0.152840 -0.009963 0.176694 0.134033 -0.000662 -0.052478 0.060864 -0.183151 -0.060676 0.050678 -0.224100 -0.039227 0.063282 -0.121710 -0.086069 -0.088795 0.013915 0.000573 0.164562 0.101298 -0.035287 0.005067 0.099996 -0.248323 -0.103759 0.073768 -0.142180 0.025268 -0.028279 -0.187809 -0.008847 -0.053034 0.105388 -0.033845 0.097642 -0.118882 -0.099539 -0.001273 -0.019580 0.024026 -0.046577 0.059410 0.045936 -0.094774 -0.009350 0.086017 0.052059 0.045700 -0.108361 0.382951 0.021358 -0.182781 -0.181758 -0.084709 0.082034 0.157454 0.196142 0.034832 0.173707 0.053704
1179 -0.117050 -0.105174 0.103902 -0.049827 0.073213 0.044284 -0.066832 -0.147000 -0.016452 -0.103523 0.059871 0.128648 0.028411 -0.052251 -0.148978 -0.031877 0.009133 0.046792 -0.088132 0.096748 0.003710 -0.002113 0.075525 0.069541 0.009198 -0.093034 -0.145288 -0.036753 0.062307 -0.049467 0.072970 0.063729 -0.021639 -0.226684 0.133213 0.069844 0.073681 0.077415 0.060036 -0.102428 0.097360 0.024353 0.035573 -0.032761 -0.008072 0.049107 0.024423 -0.074901 -0.044042 -0.034461 -0.126287 0.029728 0.066310 -0.079243 0.076175 0.051105 -0.005016 -0.091788 -0.134107 0.076703 -0.096998 -0.006817 0.052591 -0.086749 0.053505 0.067947 -0.050529 -0.132602 0.116076 -0.025818 0.208487 0.186911 0.003541 -0.028159 0.030469 -0.204339 -0.035304 0.039454 -0.267091 -0.049709 0.020230 -0.103793 -0.070742 -0.102983 0.013824 -0.035459 0.155325 0.084234 -0.019841 0.007012 0.105850 -0.253019 -0.096919 0.056129 -0.129890 -0.007731 -0.021178 -0.115908 -0.040762 -0.028203 0.076758 -0.026119 0.120633 -0.155405 -0.098820 -0.018976 -0.004977 -0.002655 -0.049053 0.081266 0.085051 -0.097229 -0.043446 0.061728 0.014162 0.039397 -0.091937 0.334886 0.039498 -0.187664 -0.215951 -0.077163 0.106537 0.171677 0.176479 0.033670 0.163671 0.051105
1472 -0.080304 -0.117367 0.072143 -0.044154 0.052418 0.033161 -0.040132 -0.094378 -0.015542 -0.083313 0.020303 0.071900 -0.020015 -0.074771 -0.139510 -0.026533 0.020872 0.045358 -0.135070 0.166555 0.004724 -0.040814 0.122787 0.082827 -0.020102 -0.060354 -0.138649 -0.033467 0.034398 -0.054835 0.091104 0.069215 0.031107 -0.313877 0.136301 0.088367 0.064574 0.098888 0.055877 -0.074245 0.050371 0.031476 -0.011085 -0.027930 -0.000785 0.078733 -0.017161 -0.038475 -0.003032 -0.009124 -0.083737 0.061033 0.053593 -0.008674 0.069094 0.003397 0.033249 -0.064850 -0.121870 0.110679 -0.095880 -0.019187 0.063594 -0.091640 0.010667 0.033186 -0.050191 -0.079687 0.124079 0.031221 0.159607 0.187376 0.030835 0.026079 0.039919 -0.165866 -0.042736 0.040151 -0.264638 -0.101758 0.096034 -0.119669 -0.036964 -0.128806 0.050570 -0.075616 0.160785 0.044065 -0.041137 0.069979 0.084817 -0.270374 -0.098646 0.085317 -0.162191 0.022893 -0.017854 -0.153490 -0.051170 -0.047930 0.069111 -0.032454 0.055826 -0.093148 -0.090836 -0.022543 -0.009064 -0.030850 -0.068574 0.047786 0.095130 -0.119742 -0.047829 0.044736 -0.005739 0.038519 -0.124309 0.369114 0.062901 -0.238253 -0.218365 -0.049812 0.081537 0.179442 0.176368 0.060445 0.176254 0.029455
1182 -0.068130 -0.142610 0.102334 -0.026819 0.071472 0.051139 -0.065417 -0.137463 -0.019951 -0.111831 0.038200 0.116225 -0.027546 -0.038652 -0.216494 -0.015456 0.017992 0.026588 -0.106403 0.145479 -0.008516 -0.096125 0.071870 0.091406 -0.041889 -0.097507 -0.150865 -0.034384 0.075769 -0.048121 0.076972 0.087674 0.014119 -0.263209 0.127341 0.108209 0.067764 0.070120 0.079031 -0.102723 0.049914 -0.008624 0.004692 -0.029413 0.024347 0.074147 0.015165 -0.041656 0.029796 -0.016023 -0.110624 0.041951 0.083231 -0.094924 0.068605 0.030249 0.027126 -0.063964 -0.120743 0.106580 -0.117539 -0.059894 0.024133 -0.062067 0.033182 0.040734 -0.072162 -0.069305 0.132232 -0.007256 0.158281 0.191682 0.002810 0.035922 0.029253 -0.156147 -0.089345 0.023215 -0.243805 -0.054468 0.085805 -0.093880 -0.058604 -0.112943 0.024267 -0.019668 0.147137 0.050454 -0.022199 0.049027 0.108994 -0.237619 -0.131288 0.065300 -0.169979 0.013761 -0.074669 -0.143913 -0.065357 -0.050065 0.091507 -0.010794 0.068512 -0.091952 -0.075668 -0.008631 0.028087 -0.019181 -0.054321 0.042639 0.048135 -0.105051 -0.041464 0.081171 0.015803 0.061883 -0.093135 0.323486 0.059406 -0.186265 -0.152254 -0.080967 0.076976 0.188562 0.191051 0.093894 0.146546 0.062710
1174 -0.077634 -0.130101 0.149579 -0.064208 0.123076 0.080830 -0.063877 -0.100859 0.004631 -0.104160 0.016568 0.037062 0.011127 -0.068756 -0.228708 0.015756 -0.005383 0.017806 -0.129574 0.079772 -0.030273 -0.064719 0.095929 0.105072 -0.009773 -0.060729 -0.116853 0.001188 0.086524 -0.010756 0.041790 0.035535 0.000735 -0.199543 0.116374 0.111122 0.101948 0.061971 0.043796 -0.059706 -0.001812 0.012597 -0.009759 -0.005995 0.027595 0.033404 -0.000871 -0.068229 0.030850 -0.010999 -0.110949 0.069438 0.077256 -0.055291 0.140022 0.024906 0.037202 -0.067761 -0.102399 0.111096 -0.113193 -0.059995 0.032539 -0.089371 0.007297 0.044868 -0.023031 -0.118939 0.100512 -0.032284 0.171033 0.169907 0.032154 0.023371 0.002909 -0.172833 -0.045712 0.001636 -0.216765 -0.079275 0.082071 -0.055679 -0.099195 -0.102803 0.018834 0.005692 0.113446 0.058785 -0.072113 0.071986 0.085614 -0.188467 -0.103904 0.053423 -0.143457 0.050707 -0.015847 -0.175748 -0.050375 -0.048634 0.096353 0.000608 0.093112 -0.110416 -0.092344 -0.008532 0.047726 -0.015176 -0.070077 0.015333 0.046413 -0.033671 -0.069879 0.020997 0.061282 0.042667 -0.154477 0.357553 0.020273 -0.245803 -0.207485 -0.134775 0.106627 0.207304 0.230223 0.032014 0.199204 0.055345
1414 -0.071306 -0.150547 0.133930 -0.039114 0.100812 0.058022 -0.073256 -0.084775 0.002333 -0.086697 0.010828 0.045235 -0.011157 -0.053615 -0.202542 -0.022565 0.013074 -0.016441 -0.154320 0.128618 -0.022279 -0.088873 0.087065 0.091515 -0.004922 -0.099560 -0.121074 0.006500 0.062820 -0.043907 0.109342 0.056585 0.042690 -0.254905 0.108343 0.085009 0.081518 0.080799 0.056459 -0.099803 0.033328 -0.030705 0.000818 -0.015471 0.032427 0.090942 0.002230 -0.090349 0.006785 -0.018175 -0.079631 0.086953 0.074643 -0.080334 0.049519 0.007056 0.027816 -0.037720 -0.074024 0.098777 -0.069058 -0.082810 0.051815 -0.068985 0.021790 0.003371 -0.056603 -0.119997 0.113005 0.004931 0.128099 0.127850 0.031840 -0.036565 0.005035 -0.196539 -0.090078 0.006769 -0.207378 -0.064203 0.098975 -0.095631 -0.072642 -0.089947 0.042404 -0.005043 0.103426 0.068623 -0.050327 0.052418 0.086984 -0.223149 -0.124831 0.087654 -0.127488 0.060756 -0.033797 -0.210926 -0.061086 -0.062558 0.128108 0.029025 0.056238 -0.127255 -0.128296 0.001374 -0.014542 -0.041153 -0.065036 0.033025 0.031423 -0.058260 -0.048627 0.058477 0.058885 0.012280 -0.090841 0.348658 0.042309 -0.210561 -0.206177 -0.078677 0.095380 0.196457 0.233374 0.093718 0.204452 0.072413
1183 -0.069645 -0.113010 0.135947 -0.093159 0.091536 0.112326 -0.048481 -0.141971 -0.031450 -0.073376 0.026467 0.089150 0.002481 -0.073805 -0.206989 0.007675 -0.017772 0.018283 -0.166005 0.152370 -0.023921 -0.078689 0.102758 0.138710 -0.007225 -0.081879 -0.115582 0.001640 0.066328 -0.029908 0.097050 0.036910 0.044754 -0.268028 0.157867 0.092357 0.073171 0.072291 0.069198 -0.076750 0.080184 -0.012001 -0.001390 -0.049303 0.017313 0.068837 -0.012091 -0.045118 0.007265 -0.038679 -0.093869 0.030921 0.075750 -0.067669 0.083560 0.016938 0.039136 -0.076574 -0.110506 0.107321 -0.118484 -0.083965 0.059182 -0.103911 -0.007934 0.023933 -0.033947 -0.117750 0.115676 -0.033734 0.159282 0.168372 0.014331 0.005745 -0.017751 -0.188960 -0.044685 0.043260 -0.228196 -0.078014 0.056984 -0.041517 -0.074270 -0.091529 0.018218 0.018904 0.119537 0.064296 -0.025745 0.051740 0.072943 -0.219297 -0.091633 0.028218 -0.145244 -0.000220 -0.014862 -0.183009 -0.061005 -0.066730 0.106483 -0.027893 0.048922 -0.107085 -0.086197 0.024451 0.051221 -0.032965 -0.098618 0.049595 0.069245 -0.049552 -0.039540 0.073100 0.041843 0.026116 -0.065837 0.356775 0.065229 -0.200219 -0.198716 -0.098031 0.059668 0.150681 0.215318 0.074373 0.128355 0.057562
1479 -0.071906 -0.153365 0.127445 -0.022936 0.088158 0.028763 -0.075660 -0.123736 -0.031133 -0.110661 0.022330 0.057663 -0.009597 -0.037893 -0.185586 -0.021508 0.012158 0.035358 -0.092420 0.136345 0.033989 -0.098588 0.059194 0.099531 -0.012089 -0.061134 -0.126923 -0.001672 0.050913 -0.041028 0.081425 0.062235 0.030411 -0.218972 0.103866 0.091805 0.066183 0.104722 0.036400 -0.116706 0.018110 0.013691 0.005971 -0.036544 0.043014 0.105886 0.005926 -0.047934 0.008738 -0.053425 -0.138013 0.072263 0.080453 -0.067044 0.064516 -0.001216 0.032409 -0.031492 -0.088239 0.095959 -0.118918 -0.046097 0.013357 -0.129687 0.043512 0.025466 -0.082804 -0.068738 0.112146 0.028051 0.115820 0.150303 0.029306 -0.009326 0.024237 -0.185469 -0.105571 0.043540 -0.218432 -0.069205 0.118170 -0.085520 -0.038888 -0.109060 0.065318 -0.030158 0.138200 0.027926 -0.062411 0.009901 0.118578 -0.241923 -0.118310 0.099132 -0.156368 0.052254 -0.021681 -0.155842 -0.088185 -0.072830 0.101531 -0.030057 0.077745 -0.117458 -0.144513 -0.030559 0.013992 0.005897 -0.050410 0.077170 0.116273 -0.090805 -0.078779 0.039815 0.030401 0.038196 -0.144850 0.357895 0.061257 -0.243900 -0.133556 -0.079040 0.064982 0.156567 0.186192 0.063098 0.146676 0.041540
1177 -0.112760 -0.147972 0.080398 -0.040089 0.049710 0.032642 -0.048375 -0.087187 -0.033527 -0.095790 0.023575 0.082693 -0.008448 -0.065002 -0.180350 -0.036049 0.028767 -0.003056 -0.123503 0.158639 -0.008720 -0.075553 0.090694 0.077043 -0.016145 -0.080599 -0.136383 -0.034719 0.036162 -0.016916 0.053624 0.071005 0.002291 -0.258482 0.113769 0.101753 0.082178 0.056472 0.072088 -0.111863 0.066779 0.022633 0.025931 -0.047996 0.064015 0.087600 0.013982 -0.066385 0.000858 -0.006459 -0.093056 0.075492 0.094506 -0.073396 0.068069 0.006765 0.036353 -0.044703 -0.102263 0.091534 -0.118200 -0.036965 0.020239 -0.095965 0.015114 0.032224 -0.042284 -0.102554 0.094733 0.015781 0.164611 0.178021 0.037544 0.022187 0.038809 -0.215639 -0.075864 0.037339 -0.224074 -0.085258 0.090541 -0.095161 -0.075232 -0.109846 0.041491 -0.044486 0.155078 0.031013 -0.053542 0.046886 0.091737 -0.215316 -0.113271 0.084715 -0.171140 0.003895 -0.035731 -0.143728 -0.084325 -0.057026 0.076963 -0.020257 0.075039 -0.102392 -0.098162 -0.004181 -0.002402 0.005325 -0.065496 0.075599 0.074394 -0.084702 -0.061226 0.020813 0.018663 0.036153 -0.127254 0.349013 0.067138 -0.225427 -0.207903 -0.068063 0.073053 0.133353 0.209367 0.057621 0.191819 0.016337
1181 -0.098148 -0.137909 0.132341 -0.016028 0.070220 0.052475 -0.057993 -0.081871 -0.032109 -0.083621 0.004426 0.053887 -0.001569 -0.060695 -0.208396 -0.005388 0.002879 -0.007817 -0.144562 0.090331 0.001993 -0.101470 0.076459 0.115688 0.004683 -0.114918 -0.175652 0.010973 0.066792 -0.046303 0.080799 0.048256 0.025796 -0.238066 0.110321 0.084244 0.057194 0.103985 0.084975 -0.113749 0.095856 0.013937 0.009957 -0.063722 0.043892 0.097865 0.029633 -0.061637 0.014271 -0.023034 -0.111156 0.056439 0.099567 -0.073491 0.088705 0.002774 0.059192 -0.038464 -0.095284 0.068693 -0.097878 -0.060993 0.028908 -0.090984 0.034669 0.039955 -0.066984 -0.143948 0.115828 -0.001757 0.108581 0.169936 -0.004874 -0.013487 0.032820 -0.204339 -0.114290 0.052734 -0.182920 -0.032205 0.095009 -0.090468 -0.081673 -0.094369 0.017406 -0.015665 0.149024 0.025876 -0.026819 0.030816 0.092653 -0.232263 -0.128684 0.073188 -0.150388 0.058144 -0.023378 -0.177038 -0.051469 -0.091282 0.093982 -0.027780 0.059710 -0.082607 -0.128590 -0.014290 0.008506 -0.007145 -0.068929 0.097129 0.062424 -0.043575 -0.065123 0.090963 0.000139 0.014702 -0.118093 0.342608 0.054243 -0.220607 -0.168617 -0.112616 0.041789 0.145573 0.226539 0.057085 0.196528 0.062913
1175 -0.076899 -0.140620 0.127559 -0.072233 0.127843 0.033788 -0.064374 -0.127658 -0.016075 -0.073897 0.037455 0.085148 -0.009404 -0.067954 -0.204531 -0.020475 0.047519 0.006376 -0.183860 0.147063 -0.031383 -0.089520 0.042303 0.111535 -0.024615 -0.121347 -0.117989 -0.004118 0.083562 -0.065707 0.083868 0.018508 0.022307 -0.260242 0.125622 0.090468 0.071308 0.053885 0.054314 -0.066625 0.078443 0.008090 0.006435 -0.070086 0.025734 0.086897 0.018510 -0.064946 -0.009025 -0.039026 -0.078541 0.057563 0.096950 -0.074405 0.042072 -0.014623 0.075900 -0.028781 -0.098597 0.124133 -0.077774 -0.066267 0.064155 -0.108365 0.009043 0.007238 -0.038557 -0.115936 0.111087 -0.000856 0.115337 0.064713 0.017420 -0.016623 0.000076 -0.131202 -0.043770 0.031387 -0.191145 -0.066453 0.043892 -0.092701 -0.061479 -0.099770 0.041064 0.017143 0.121659 0.053650 -0.029611 0.005104 0.060328 -0.209271 -0.118950 0.064722 -0.136365 0.031968 -0.022234 -0.203517 -0.065418 -0.032840 0.100580 -0.024663 0.054771 -0.107437 -0.122967 0.005090 -0.009776 -0.036252 -0.033208 0.101172 0.073675 -0.080449 -0.042871 0.041575 0.050253 0.004927 -0.115839 0.385273 0.064810 -0.255311 -0.187455 -0.080422 0.120941 0.207191 0.188718 0.082871 0.119296 0.056805
1477 -0.066153 -0.134880 0.107497 -0.003880 0.055035 0.064953 -0.055182 -0.133377 -0.002728 -0.095451 0.020612 0.081038 -0.034071 -0.035202 -0.173571 -0.038451 -0.000494 0.034485 -0.076265 0.136151 0.000672 -0.067954 0.046666 0.089247 -0.028195 -0.083742 -0.123216 -0.045867 0.049137 -0.064873 0.075635 0.082823 0.022111 -0.252759 0.117497 0.097571 0.083903 0.078115 0.050288 -0.105413 0.063660 -0.012702 0.005120 -0.031533 0.041842 0.101551 -0.014899 -0.058845 0.015400 -0.015855 -0.133100 0.060280 0.054030 -0.068095 0.054562 0.028299 0.051234 -0.049071 -0.083423 0.111211 -0.089181 -0.048658 0.015970 -0.086182 0.058446 0.043901 -0.081447 -0.080083 0.115685 0.026267 0.133218 0.185312 0.007163 -0.013940 0.014336 -0.159805 -0.088835 0.014118 -0.255399 -0.078842 0.099525 -0.097673 -0.047335 -0.104848 0.036320 -0.044990 0.129531 0.060578 -0.025961 0.034378 0.073943 -0.254010 -0.111764 0.094461 -0.150732 0.034934 -0.031324 -0.161190 -0.087758 -0.053997 0.089571 0.001745 0.058567 -0.090578 -0.107318 -0.006608 -0.009631 -0.035551 -0.044197 0.074300 0.086578 -0.112080 -0.066961 0.101284 -0.005710 0.053403 -0.110926 0.368907 0.042474 -0.225342 -0.173259 -0.073888 0.067511 0.195989 0.174085 0.078930 0.162673 0.050244
35 -0.056554 -0.121460 0.113053 -0.012451 0.048242 0.077130 -0.053775 -0.137019 -0.047451 -0.078238 -0.002413 0.070688 -0.019885 -0.030733 -0.190070 -0.023563 0.001764 0.015330 -0.129481 0.169011 0.008105 -0.056972 0.068827 0.098438 -0.028013 -0.070902 -0.111418 -0.020504 0.059974 -0.075597 0.103742 0.047307 0.009600 -0.290182 0.122768 0.097421 0.095651 0.041880 0.068771 -0.081311 0.060415 0.033539 0.052913 -0.032151 0.054972 0.089787 0.009294 -0.078151 0.018549 -0.018860 -0.104275 0.073844 0.081463 -0.065120 0.045406 0.000315 0.047531 -0.079342 -0.085788 0.102573 -0.077390 -0.028129 0.020115 -0.091424 0.007049 0.011891 -0.050684 -0.072716 0.090550 0.001552 0.165278 0.130300 0.036663 0.015616 0.007157 -0.177751 -0.081043 0.037394 -0.240956 -0.074976 0.091028 -0.073981 -0.057075 -0.121307 0.089079 -0.040078 0.111824 0.031565 -0.033945 0.032140 0.070556 -0.249184 -0.102474 0.074045 -0.140331 -0.002455 -0.010945 -0.121247 -0.088811 -0.046705 0.103045 -0.015697 0.043646 -0.100183 -0.106847 -0.008117 0.007522 -0.027637 -0.041864 0.097059 0.101739 -0.108906 -0.077819 0.063253 -0.008196 0.040893 -0.125289 0.350173 0.047020 -0.235384 -0.177761 -0.089454 0.085379 0.163762 0.217724 0.105881 0.186824 0.035839
1475 -0.059860 -0.114925 0.108866 -0.018993 0.067956 0.056141 -0.069319 -0.147774 -0.033689 -0.085236 0.023173 0.058347 -0.018802 -0.065177 -0.174441 -0.035276 0.008301 0.058239 -0.107056 0.131459 0.021550 -0.064024 0.050627 0.087324 -0.049832 -0.086975 -0.134123 -0.053091 0.077435 -0.047995 0.102255 0.096657 0.040350 -0.290907 0.154522 0.109074 0.113751 0.082095 0.061665 -0.103244 0.075919 0.039739 0.050315 -0.063066 0.048751 0.083491 0.016337 -0.078462 0.002489 0.000906 -0.149377 0.071085 0.056267 -0.071283 0.043060 -0.012293 0.044305 -0.052505 -0.085859 0.092286 -0.093779 -0.025594 0.018256 -0.085796 0.027602 0.029709 -0.076058 -0.062385 0.139922 0.009516 0.125683 0.149966 0.022427 0.039850 -0.011249 -0.130542 -0.077003 0.050650 -0.245078 -0.060178 0.092903 -0.116590 -0.046700 -0.125585 0.059404 -0.039834 0.127832 0.039478 -0.048277 0.039418 0.108880 -0.225265 -0.106212 0.114671 -0.126038 0.035470 -0.040505 -0.141114 -0.091475 -0.053927 0.077157 -0.019099 0.086354 -0.106109 -0.130482 -0.028185 0.015603 -0.063157 -0.060382 0.062538 0.126880 -0.098326 -0.071445 0.085221 0.004300 0.079278 -0.102333 0.346871 0.049210 -0.217940 -0.171270 -0.105479 0.088579 0.163458 0.166092 0.089023 0.156097 0.061005
1184 -0.074883 -0.135211 0.104322 -0.046572 0.034897 0.063984 -0.065263 -0.116545 -0.007980 -0.113794 0.021354 0.098106 -0.004719 -0.067211 -0.210922 -0.004329 0.014388 -0.003920 -0.146806 0.183296 -0.051752 -0.101182 0.080910 0.124472 -0.025625 -0.082904 -0.162708 -0.014262 0.064577 -0.032945 0.062304 0.062492 0.039810 -0.226420 0.097310 0.073747 0.067622 0.065078 0.031178 -0.088516 0.036787 -0.001395 -0.010205 -0.030352 0.022048 0.077597 -0.004282 -0.036662 0.014061 0.002978 -0.093539 -0.000959 0.074499 -0.048385 0.076447 0.017173 -0.000707 -0.045615 -0.101076 0.066433 -0.128328 -0.059851 0.027166 -0.091467 0.018993 0.057586 -0.056152 -0.095797 0.134060 0.000391 0.180755 0.195233 0.001484 0.009580 0.035002 -0.161719 -0.055553 0.059592 -0.239306 -0.085208 0.095173 -0.068189 -0.076302 -0.114229 0.016897 -0.034750 0.140419 0.049737 -0.051855 0.068149 0.100444 -0.273946 -0.095444 0.037126 -0.170857 0.004352 -0.044843 -0.160867 -0.059033 -0.065050 0.134260 -0.016013 0.066570 -0.090990 -0.070350 0.017367 0.019049 0.015225 -0.084780 0.062626 0.070372 -0.077566 -0.024387 0.077710 0.022514 0.056356 -0.083565 0.341830 0.047845 -0.188699 -0.176882 -0.081964 0.074446 0.160731 0.224597 0.038054 0.157952 0.047741
306 -0.055555 -0.104722 0.137848 -0.078059 0.105422 0.041658 -0.056830 -0.122153 -0.028630 -0.108202 0.001996 0.080415 -0.040477 -0.022284 -0.171174 -0.089185 -0.000478 0.021045 -0.138225 0.114506 -0.020652 -0.051777 0.034167 0.093070 -0.051495 -0.081137 -0.113839 -0.029759 0.060274 -0.066330 0.083276 0.050658 -0.009142 -0.289692 0.140233 0.085644 0.087532 0.068202 0.057790 -0.060034 0.137828 -0.028284 -0.012079 -0.073485 0.027323 0.085662 0.001506 -0.100720 0.013710 -0.034447 -0.120176 0.087063 0.101360 -0.087474 0.064394 0.011314 0.094949 -0.098605 -0.110836 0.117579 -0.072590 -0.012750 0.038768 -0.099083 0.054311 0.074962 -0.054616 -0.100139 0.086944 0.029825 0.158055 0.111392 0.033960 0.004699 0.006789 -0.138873 -0.062158 -0.012569 -0.208796 -0.104687 0.061484 -0.092539 -0.027931 -0.094790 0.059917 -0.026789 0.090102 0.047276 -0.026407 -0.001891 0.072870 -0.187728 -0.097687 0.102652 -0.120352 0.019790 -0.007038 -0.161669 -0.049885 -0.029180 0.068192 -0.006726 0.045797 -0.070437 -0.129028 -0.009383 -0.024858 -0.027462 -0.042380 0.108106 0.074677 -0.139727 -0.080158 0.059107 0.020761 0.017364 -0.144527 0.345524 0.038571 -0.241406 -0.207927 -0.093347 0.122851 0.240074 0.151025 0.104157 0.168915 0.040294
303 -0.086074 -0.137791 0.103864 -0.009498 0.084790 0.034977 -0.058643 -0.108480 -0.007276 -0.123875 0.051426 0.068941 -0.017340 -0.048089 -0.175573 -0.042978 0.016772 0.002876 -0.206089 0.152102 -0.017345 -0.078115 0.087806 0.074051 -0.004024 -0.085863 -0.150422 -0.031637 0.015564 -0.081119 0.071144 0.028716 0.082382 -0.263379 0.124796 0.045631 0.055106 0.040761 0.033129 -0.079813 0.132117 0.030438 0.035737 -0.099322 0.051841 0.118383 0.022268 -0.054729 -0.052088 0.010206 -0.069293 0.068891 0.087826 -0.046554 0.047562 -0.027880 0.039250 -0.006504 -0.092930 0.093513 -0.047302 -0.029752 0.079421 -0.118082 0.028061 0.004152 -0.036408 -0.095645 0.085012 0.005289 0.154720 0.126440 0.049095 -0.018255 0.014068 -0.145788 -0.100587 0.071391 -0.190126 -0.113480 0.089072 -0.135171 -0.038830 -0.122622 0.032540 -0.069807 0.096868 0.052683 -0.034816 -0.015420 0.042930 -0.205690 -0.070820 0.114199 -0.135857 0.022880 -0.019299 -0.166612 -0.049771 -0.057009 0.096189 0.020303 0.065109 -0.104385 -0.151325 0.003874 -0.033892 0.009689 -0.056333 0.077047 0.039118 -0.105546 -0.042368 0.089022 0.022772 0.058104 -0.159806 0.345235 0.034079 -0.201813 -0.243515 -0.040402 0.094711 0.194809 0.202203 0.067517 0.175825 0.041697
307 -0.092803 -0.121969 0.114562 -0.018913 0.093102 0.054999 -0.053642 -0.136499 -0.006073 -0.092062 0.031656 0.054968 -0.013985 -0.051974 -0.195819 -0.065123 -0.003386 0.059640 -0.100434 0.065913 -0.003964 -0.055704 0.058954 0.083817 -0.011082 -0.082408 -0.098886 -0.046341 0.086730 -0.035555 0.066469 0.060273 -0.006773 -0.272632 0.135580 0.118716 0.088926 0.056812 0.039011 -0.072800 0.081071 -0.004001 0.013062 -0.034256 0.039784 0.101842 -0.007306 -0.112530 0.020719 -0.027587 -0.093426 0.093758 0.090765 -0.062434 0.100605 0.035898 0.043319 -0.058427 -0.121900 0.122791 -0.090986 -0.045792 0.027601 -0.113125 0.038269 0.037806 -0.047088 -0.073935 0.104759 0.011803 0.133568 0.181770 0.044059 0.035714 0.006328 -0.175724 -0.074732 0.007608 -0.216860 -0.099077 0.098426 -0.074595 -0.071537 -0.107258 0.071642 -0.008578 0.125929 0.038714 -0.047407 0.041181 0.072501 -0.223894 -0.109102 0.127856 -0.147238 0.000559 -0.015479 -0.152856 -0.081657 -0.052911 0.052904 -0.001758 0.067471 -0.106821 -0.099370 -0.000845 0.005083 -0.051349 -0.026133 0.042095 0.071690 -0.083530 -0.090962 0.045005 0.004034 0.058467 -0.149551 0.370742 0.039744 -0.238748 -0.173273 -0.102412 0.091313 0.206693 0.190923 0.057533 0.169501 0.059203
1470 -0.087102 -0.153576 0.125536 -0.042706 0.117348 0.079725 -0.067589 -0.139580 -0.007798 -0.116953 -0.000126 0.084574 -0.016016 -0.075024 -0.164830 -0.057026 -0.042319 0.044097 -0.127157 0.118308 0.016233 -0.044021 0.063607 0.082270 -0.004830 -0.097085 -0.091575 -0.041723 0.051436 -0.053819 0.081522 0.052148 0.030032 -0.269591 0.122951 0.082136 0.070264 0.089438 0.025891 -0.099666 0.017696 0.008472 -0.022741 -0.043241 0.041569 0.062787 0.018576 -0.058444 0.006373 -0.032674 -0.092736 0.064879 0.052704 -0.067491 0.054489 0.034558 0.035052 -0.053958 -0.107876 0.101259 -0.111346 -0.041724 0.029251 -0.073766 0.057359 0.032280 -0.037533 -0.049635 0.113074 0.003019 0.169936 0.156309 0.036044 -0.022170 0.039185 -0.184368 -0.081637 0.034154 -0.255010 -0.073513 0.077227 -0.098584 -0.046089 -0.113224 0.055880 -0.033744 0.165305 0.054341 -0.018295 -0.013153 0.080168 -0.221414 -0.119324 0.117304 -0.144189 0.022521 -0.024775 -0.161379 -0.091675 -0.050042 0.029093 -0.035632 0.081429 -0.076269 -0.103861 -0.014812 -0.013586 0.008326 -0.058892 0.055586 0.082382 -0.109730 -0.081242 0.054612 0.002829 0.050643 -0.155990 0.333183 0.041721 -0.212936 -0.204743 -0.094492 0.078443 0.167497 0.210180 0.063135 0.169530 0.055537
1473 -0.095021 -0.113418 0.157303 -0.019678 0.111558 0.060545 -0.045891 -0.116969 -0.000379 -0.071844 0.000565 0.021180 -0.038090 -0.050949 -0.145222 -0.056570 -0.018403 0.051942 -0.103331 0.086725 -0.015349 -0.060607 0.049883 0.103947 -0.011483 -0.091083 -0.107981 -0.021738 0.045728 -0.058329 0.052057 0.065885 -0.027501 -0.232792 0.158270 0.116342 0.106785 0.078120 0.047097 -0.093779 0.092285 -0.003033 0.002474 -0.036040 0.046840 0.074439 -0.012038 -0.090583 -0.024906 -0.047550 -0.120611 0.112322 0.088375 -0.093936 0.104265 0.023869 0.097318 -0.062514 -0.133512 0.104211 -0.103712 -0.056751 0.063292 -0.103393 0.043782 0.050401 -0.073494 -0.118727 0.113460 0.036866 0.128097 0.120610 0.024837 -0.003643 -0.000480 -0.155500 -0.070764 -0.002505 -0.226734 -0.092352 0.108091 -0.092868 -0.073296 -0.082482 0.039496 -0.025187 0.142029 0.049828 -0.053279 0.014976 0.080548 -0.200573 -0.097772 0.136750 -0.127851 0.013054 -0.005077 -0.175302 -0.078464 -0.050703 0.075074 0.012628 0.056234 -0.099608 -0.120491 -0.003321 -0.005911 -0.026064 -0.047779 0.072247 0.052272 -0.108920 -0.043829 0.060033 -0.004805 0.045822 -0.129734 0.343964 0.026501 -0.239051 -0.172100 -0.099710 0.121348 0.245217 0.173981 0.067291 0.220487 0.060349
1410 -0.072931 -0.128102 0.100728 -0.017217 0.090187 0.064793 -0.061126 -0.136373 -0.037669 -0.100279 0.024112 0.076424 -0.025424 -0.057766 -0.191152 -0.051853 0.016080 0.068915 -0.144757 0.156024 -0.025744 -0.065345 0.062312 0.071594 -0.039071 -0.081500 -0.138597 -0.029902 0.020900 -0.062496 0.070157 0.077355 0.031974 -0.269468 0.110841 0.087927 0.050559 0.095147 0.009394 -0.093662 0.059568 -0.008162 0.034290 -0.064881 0.033407 0.092724 0.038462 -0.071995 -0.006549 -0.013182 -0.071132 0.046671 0.028224 -0.034509 0.024616 0.014937 0.009135 -0.038864 -0.111350 0.082341 -0.086882 -0.018157 0.030408 -0.094544 0.049863 -0.000189 -0.042595 -0.070879 0.124236 -0.007653 0.170310 0.169288 0.049439 -0.003332 0.026747 -0.174672 -0.092585 0.064550 -0.247592 -0.112424 0.114146 -0.129696 -0.046731 -0.108351 0.070475 -0.053699 0.159441 0.065948 -0.065439 0.004531 0.094161 -0.285022 -0.105734 0.099193 -0.162083 0.026708 -0.017297 -0.164780 -0.043001 -0.042682 0.106069 0.000263 0.084754 -0.105182 -0.090524 -0.006908 -0.029257 0.009676 -0.076659 0.063225 0.065112 -0.094771 -0.070773 0.064560 0.030824 0.088456 -0.110371 0.345275 0.037973 -0.194496 -0.182167 -0.055817 0.090623 0.154792 0.182911 0.066612 0.150427 0.053859
1471 -0.108321 -0.148567 0.120661 -0.008208 0.082738 0.068239 -0.004179 -0.106203 0.029837 -0.092190 0.028233 0.050166 -0.016378 -0.039886 -0.168652 -0.057133 -0.026550 0.040845 -0.161434 0.144403 -0.012113 -0.074157 0.084660 0.106287 0.010328 -0.076359 -0.091601 -0.015941 0.079794 -0.000384 0.060935 0.031106 0.035883 -0.198757 0.097480 0.090644 0.071036 0.054932 0.039447 -0.086893 0.036782 -0.027005 -0.006088 -0.005830 0.022534 0.102328 -0.004142 -0.073348 0.052659 -0.009257 -0.097604 0.077153 0.093832 -0.037047 0.092169 0.015367 0.001285 -0.049211 -0.054384 0.102857 -0.105304 -0.053417 0.021905 -0.109518 0.048736 0.018781 -0.052185 -0.059614 0.104851 0.013702 0.128947 0.182751 0.055487 0.026804 0.020794 -0.144386 -0.067813 0.036149 -0.224284 -0.095006 0.110802 -0.038708 -0.053823 -0.100787 0.060195 -0.022368 0.138323 0.063608 -0.053440 0.042170 0.071105 -0.225717 -0.117210 0.106635 -0.180030 0.028199 -0.005766 -0.161209 -0.099009 -0.076850 0.074023 -0.005504 0.067364 -0.070622 -0.103635 -0.028392 0.013477 -0.040076 -0.031656 0.014680 0.087256 -0.056080 -0.063576 0.045047 0.000165 0.089598 -0.173103 0.389717 0.023992 -0.282830 -0.174950 -0.127101 0.082781 0.232145 0.252768 0.051230 0.185347 0.032669
309 -0.110967 -0.143056 0.146340 0.016851 0.111026 0.021366 -0.050049 -0.118534 0.009248 -0.128349 0.033925 0.015865 -0.019514 -0.051299 -0.199093 -0.065265 -0.001989 0.061455 -0.131129 0.089398 -0.008696 -0.059946 0.030787 0.116879 -0.051594 -0.089043 -0.085360 -0.032054 0.058416 -0.054645 0.054992 0.040741 -0.002658 -0.194445 0.105354 0.114506 0.122552 0.015493 0.091011 -0.099912 0.040180 0.028303 0.041803 0.024582 0.047479 0.051810 -0.002955 -0.065066 0.009878 -0.015695 -0.154753 0.088997 0.111887 -0.060541 0.076439 0.023374 0.038907 -0.030082 -0.103951 0.088844 -0.100610 -0.019217 0.034240 -0.125711 0.020101 0.042347 -0.076556 -0.100969 0.103126 0.012931 0.153519 0.090595 0.020493 0.009050 -0.012749 -0.132551 -0.048344 0.035123 -0.246319 -0.068981 0.119526 -0.105073 -0.083949 -0.121810 0.043499 -0.025795 0.133323 0.059863 -0.047223 -0.008279 0.101163 -0.171348 -0.109276 0.115916 -0.145185 0.024735 -0.026784 -0.147776 -0.105197 -0.045829 0.096731 -0.009899 0.077049 -0.095373 -0.093305 -0.012652 -0.011380 -0.017573 -0.046063 0.030423 0.070271 -0.101195 -0.042428 0.059498 0.035564 0.093190 -0.150621 0.399003 0.047180 -0.249000 -0.196756 -0.115006 0.137847 0.210811 0.177064 0.078325 0.180365 0.009876
302 -0.071500 -0.139665 0.082552 -0.030212 0.044624 0.034800 -0.034647 -0.075436 -0.037847 -0.090069 0.023596 0.058938 -0.035695 -0.057767 -0.141181 -0.034973 0.008089 0.050749 -0.121635 0.163999 -0.010742 -0.073105 0.098126 0.109400 -0.020786 -0.075639 -0.119492 -0.042835 0.024041 -0.067556 0.058715 0.064020 0.042039 -0.277396 0.128188 0.083478 0.066679 0.062156 0.074468 -0.103168 0.051441 0.017815 -0.017957 -0.040277 0.035003 0.083464 0.002240 -0.052161 0.034090 -0.009470 -0.118588 0.051089 0.057217 -0.050223 0.098205 0.008869 0.019922 -0.074793 -0.140576 0.104934 -0.108356 -0.007461 0.044173 -0.126415 0.033976 0.024509 -0.048391 -0.099354 0.121417 0.008096 0.153163 0.204923 0.023453 0.037251 -0.006240 -0.171920 -0.056947 0.033556 -0.258212 -0.111080 0.086781 -0.099127 -0.019992 -0.146721 0.041328 -0.039581 0.129869 0.030734 -0.029115 0.051504 0.106022 -0.240701 -0.135753 0.074276 -0.158707 0.038963 0.022752 -0.166477 -0.061891 -0.083676 0.061745 -0.012841 0.054964 -0.098352 -0.094185 -0.018766 0.001331 -0.014957 -0.034480 0.047722 0.096813 -0.074784 -0.061624 0.030981 -0.010800 0.056375 -0.134099 0.373024 0.046792 -0.242488 -0.201767 -0.073541 0.064954 0.151502 0.174471 0.064431 0.154401 0.045092
644 -0.065909 -0.110883 0.127843 -0.043826 0.085301 0.012578 -0.068549 -0.088199 -0.010660 -0.087460 0.035558 0.068732 -0.000141 -0.032700 -0.139038 0.003886 0.009870 0.032058 -0.171898 0.146528 0.002143 -0.088109 0.058602 0.097420 -0.037696 -0.066204 -0.176188 -0.034323 0.069697 -0.087877 0.036607 0.033071 -0.002017 -0.244794 0.144831 0.126780 0.090977 0.054483 0.097123 -0.095604 0.058975 0.039479 0.049761 -0.019331 0.056282 0.078429 0.028718 -0.049300 -0.061998 -0.053489 -0.095610 0.116285 0.116393 -0.125655 0.099091 0.044278 0.044320 -0.049244 -0.139565 0.104604 -0.045642 0.013693 0.049001 -0.111222 0.032221 0.031703 -0.042705 -0.111090 0.099735 0.033750 0.148969 0.131055 0.011940 0.008251 -0.020521 -0.162496 -0.070476 0.071405 -0.266216 -0.071791 0.060820 -0.107929 -0.034023 -0.103928 0.068568 -0.034567 0.118465 0.040666 -0.009709 -0.031681 0.097556 -0.208040 -0.093075 0.091651 -0.170043 0.027808 -0.021489 -0.135847 -0.052800 -0.038099 0.095400 -0.008769 0.071793 -0.121192 -0.100092 -0.025309 -0.011105 -0.024622 -0.029667 0.071256 0.076894 -0.115377 -0.054662 0.090994 0.031379 0.020528 -0.130789 0.343509 0.040428 -0.230843 -0.192919 -0.093587 0.088276 0.175111 0.163741 0.046481 0.185869 0.045923
308 -0.029809 -0.124761 0.134963 -0.020826 0.070589 0.056748 -0.056898 -0.103325 0.003529 -0.110885 -0.000818 0.046588 -0.043906 -0.051093 -0.197493 -0.046544 -0.012815 0.025495 -0.144696 0.158921 0.020021 -0.117906 0.041195 0.103670 -0.048884 -0.095101 -0.122335 -0.044453 0.037635 -0.080946 0.070471 0.076172 0.041442 -0.278589 0.126833 0.096083 0.104733 0.066233 0.067219 -0.111682 0.093251 0.040847 0.032591 -0.058676 0.086585 0.087946 0.023187 -0.063518 0.002017 -0.021523 -0.153014 0.066315 0.093836 -0.089676 0.046017 0.006461 0.110035 -0.022449 -0.142877 0.100956 -0.077576 -0.036118 0.025846 -0.137094 0.045363 0.026150 -0.086191 -0.031998 0.111004 0.034696 0.137083 0.126386 0.026426 -0.017872 -0.041911 -0.123099 -0.104292 0.051780 -0.265376 -0.103462 0.100710 -0.100301 -0.023659 -0.099154 0.018463 -0.023487 0.093805 0.056841 -0.024872 0.002845 0.089988 -0.192539 -0.078925 0.120260 -0.140480 0.026221 -0.028633 -0.164317 -0.094902 -0.061988 0.091687 -0.017110 0.045304 -0.077292 -0.108587 -0.016162 -0.003105 -0.026523 -0.042904 0.055994 0.068418 -0.124124 -0.032659 0.088135 0.034425 0.071306 -0.122535 0.361892 0.046524 -0.189006 -0.172611 -0.095306 0.089428 0.174983 0.166305 0.110271 0.127683 0.047423
300 -0.059550 -0.148098 0.099496 -0.025928 0.120588 0.029547 -0.057016 -0.121152 0.012237 -0.087919 0.055290 0.068292 -0.020635 -0.080734 -0.173053 -0.035414 0.006131 -0.004967 -0.163518 0.130038 0.007630 -0.055682 0.065110 0.088923 -0.005395 -0.129056 -0.138961 -0.052371 0.068534 -0.015464 0.084055 0.056861 0.027389 -0.266779 0.105362 0.087716 0.070435 0.063231 0.036768 -0.111483 0.064116 0.032780 0.040647 -0.034674 0.049252 0.045064 0.042511 -0.062123 0.000767 -0.021877 -0.103332 0.128594 0.091858 -0.067123 0.024770 -0.007975 0.029961 -0.024487 -0.125994 0.102476 -0.080610 -0.040097 0.007909 -0.123451 0.014413 0.013240 -0.048283 -0.047987 0.107602 0.018401 0.105109 0.122955 0.008053 -0.033083 0.009468 -0.115966 -0.021273 0.078287 -0.235230 -0.049776 0.022475 -0.107909 0.003305 -0.114644 0.038925 -0.038668 0.160827 0.065504 0.005443 -0.017408 0.090311 -0.228025 -0.133042 0.095871 -0.148341 0.075721 -0.040459 -0.187962 -0.099045 -0.045628 0.060272 -0.052439 0.081436 -0.119113 -0.120581 -0.037755 -0.012600 -0.026405 0.017351 0.042665 0.127389 -0.058651 -0.053296 0.026208 0.032765 0.038393 -0.164912 0.347600 0.021030 -0.213604 -0.196210 -0.102158 0.113527 0.175990 0.184982 0.088050 0.132386 0.032480
305 -0.087839 -0.145677 0.107741 -0.042710 0.112025 0.075530 -0.029899 -0.111364 -0.018502 -0.069685 0.040503 0.060187 -0.013636 -0.082552 -0.184324 -0.042002 -0.031147 0.055987 -0.125094 0.103731 -0.004553 -0.037109 0.087324 0.074676 -0.001176 -0.079044 -0.101341 -0.026265 0.085683 -0.052414 0.098497 0.030832 0.041439 -0.282862 0.120909 0.063007 0.092019 0.066978 0.070467 -0.098404 0.079090 0.000425 0.026952 -0.054508 0.044611 0.083210 -0.009193 -0.066623 0.015766 -0.027391 -0.104460 0.089248 0.063103 -0.067046 0.069174 0.009744 0.021603 -0.067230 -0.100106 0.102102 -0.104377 -0.060347 0.031285 -0.113398 0.052222 -0.005449 -0.046239 -0.110721 0.123958 -0.017443 0.161321 0.170778 0.047804 0.006444 -0.003764 -0.203131 -0.046034 0.049523 -0.225088 -0.080953 0.071580 -0.052632 -0.039018 -0.098485 0.036581 -0.025492 0.135353 0.059367 -0.033298 0.012826 0.058037 -0.206031 -0.112316 0.088593 -0.146058 0.034134 -0.007617 -0.171881 -0.092189 -0.074758 0.063817 -0.004476 0.064150 -0.106357 -0.107817 -0.029699 0.015241 -0.041679 -0.053994 0.023559 0.082734 -0.052022 -0.063155 0.057655 0.017298 0.058214 -0.119858 0.357949 0.045446 -0.239506 -0.191638 -0.127461 0.070468 0.143958 0.197903 0.086924 0.169006 0.041256
299 -0.050971 -0.150131 0.122846 -0.028148 0.091280 0.046292 -0.053555 -0.074132 -0.023433 -0.117210 0.026385 0.090762 -0.034685 -0.062249 -0.197439 -0.042672 0.007976 -0.045809 -0.178460 0.156227 -0.015237 -0.110483 0.051908 0.114932 -0.033662 -0.119448 -0.135884 -0.039175 0.062490 -0.088125 0.065166 0.046619 0.025518 -0.308593 0.106051 0.092829 0.105373 0.080366 0.061865 -0.066300 0.128236 0.003843 0.035412 -0.068866 0.071912 0.113645 0.008987 -0.048469 -0.021841 -0.003054 -0.081329 0.093620 0.110355 -0.079180 0.016834 0.005235 0.081261 -0.004274 -0.105124 0.097098 -0.055646 -0.037179 0.021575 -0.095565 0.050468 0.051784 -0.054069 -0.083504 0.075452 0.062888 0.124681 0.104140 0.023408 -0.037373 0.033142 -0.123904 -0.091991 0.061250 -0.212184 -0.084703 0.071616 -0.116289 -0.014474 -0.100542 0.031878 -0.031587 0.121953 0.041491 -0.005258 -0.051579 0.067477 -0.203495 -0.107658 0.100490 -0.123608 0.055250 -0.041748 -0.158382 -0.087154 -0.029818 0.074057 -0.026823 0.044711 -0.063204 -0.104564 -0.012711 -0.023630 -0.005066 0.007565 0.093517 0.058696 -0.094825 -0.049307 0.038747 0.007236 0.015052 -0.172348 0.334156 0.037347 -0.227661 -0.180798 -0.064113 0.100522 0.186985 0.189777 0.077120 0.158241 0.028105
641 -0.045168 -0.130702 0.129522 -0.061903 0.111858 0.052773 -0.034225 -0.090426 -0.006704 -0.100668 0.041652 0.043375 -0.028035 -0.053311 -0.147922 -0.044163 -0.009165 0.054835 -0.138202 0.078835 0.013221 -0.037748 0.057382 0.110729 -0.010993 -0.083836 -0.153144 -0.040016 0.066069 -0.044610 0.065810 0.044898 0.031997 -0.296000 0.112263 0.122853 0.075801 0.085642 0.077352 -0.087727 0.066551 0.001662 0.001464 -0.036710 0.053723 0.078499 0.012371 -0.080969 0.012100 -0.010536 -0.108807 0.108488 0.072963 -0.092433 0.060711 0.004508 0.047364 -0.061544 -0.136616 0.130085 -0.073597 -0.042805 -0.000726 -0.132810 0.052707 0.029973 -0.068652 -0.037633 0.095846 0.017654 0.135535 0.111188 0.045160 -0.031732 -0.057080 -0.129844 -0.056199 0.055830 -0.275116 -0.133658 0.071162 -0.092134 0.005273 -0.118274 0.060286 -0.024862 0.130394 0.070584 -0.034566 -0.041329 0.095407 -0.219798 -0.108632 0.111495 -0.170031 0.018896 -0.000980 -0.157541 -0.058119 -0.044983 0.078592 -0.036934 0.059543 -0.120095 -0.107622 -0.030555 -0.014876 -0.041486 -0.031506 0.038102 0.066140 -0.108796 -0.063180 0.035781 0.016144 0.052002 -0.167754 0.348982 0.036194 -0.226635 -0.217323 -0.106446 0.098005 0.204556 0.202859 0.086640 0.109500 0.032604
648 -0.064271 -0.160788 0.105936 -0.083842 0.053712 0.021357 -0.082753 -0.172247 -0.025309 -0.145275 0.033466 0.109888 -0.033848 -0.070945 -0.257232 -0.049622 0.028154 0.006865 -0.111720 0.141187 -0.004880 -0.060481 0.013755 0.099523 -0.078487 -0.124200 -0.106437 -0.040306 0.083569 -0.131891 0.122978 0.071835 0.034329 -0.307191 0.141890 0.078618 0.134679 0.070606 0.064314 -0.080102 0.139979 0.020688 0.046984 -0.053333 0.043337 0.082351 -0.003295 -0.066973 0.011333 0.008418 -0.104801 0.023238 0.128612 -0.093317 0.005849 0.053549 0.081366 -0.012274 -0.082286 0.078847 -0.031138 -0.011369 0.038957 -0.060375 0.043377 0.055172 -0.053525 -0.128285 0.077579 0.010365 0.154926 0.101998 -0.010737 -0.014369 0.017453 -0.105998 -0.062703 0.021071 -0.204523 -0.070700 0.065327 -0.098679 -0.026406 -0.075989 0.058600 -0.017859 0.084677 0.046902 0.004196 -0.008323 0.075259 -0.214618 -0.106362 0.100322 -0.097843 0.035110 -0.032763 -0.182540 -0.095978 -0.018432 0.071736 -0.051261 0.053694 -0.038096 -0.095592 0.000304 -0.028077 -0.038805 -0.009296 0.138243 0.084678 -0.143320 -0.050034 0.094261 -0.017332 0.036168 -0.121928 0.360463 0.069372 -0.191305 -0.177331 -0.071921 0.127681 0.189412 0.166181 0.098888 0.148509 0.061475
304 -0.094811 -0.131749 0.113040 -0.053539 0.101169 0.035652 -0.043285 -0.099923 -0.026767 -0.064689 0.026592 0.065938 0.011904 -0.075935 -0.154941 0.022778 0.002880 0.025327 -0.118233 0.062805 0.000513 -0.034219 0.112442 0.063772 -0.023129 -0.084842 -0.147445 -0.029737 0.053930 -0.055231 0.099960 0.037037 0.057060 -0.304347 0.153239 0.093923 0.032232 0.098107 0.024965 -0.083586 0.040495 0.017450 -0.012341 -0.044101 -0.003246 0.044676 0.014570 -0.048210 -0.002556 0.006320 -0.092052 0.053421 0.075610 -0.038963 0.075626 -0.017224 0.050910 -0.056650 -0.112150 0.113669 -0.088197 -0.051518 0.054440 -0.109511 0.026922 0.045895 -0.023977 -0.103678 0.129146 0.005454 0.156955 0.138894 0.036287 0.023288 0.010045 -0.147951 -0.036558 0.052493 -0.211047 -0.049616 0.062709 -0.096017 -0.048642 -0.124747 0.020517 -0.058081 0.148137 0.063567 -0.034199 0.009003 0.108972 -0.245155 -0.124858 0.086121 -0.127532 0.064485 -0.021950 -0.191224 -0.038357 -0.043575 0.100616 -0.027978 0.095590 -0.092716 -0.115338 -0.012155 0.009219 -0.009767 -0.062511 0.041244 0.087094 -0.073802 -0.052141 0.035927 0.029073 0.028545 -0.176146 0.348956 0.008409 -0.232352 -0.229947 -0.098438 0.118573 0.184928 0.217361 0.085169 0.150197 0.041510
711 -0.060981 -0.117828 0.128795 -0.010022 0.076789 0.041270 -0.042331 -0.087604 0.007825 -0.066092 -0.002677 0.018239 -0.036585 -0.060886 -0.169545 -0.024650 0.005322 0.019617 -0.126500 0.092622 0.001387 -0.047925 0.036692 0.082617 -0.021800 -0.093339 -0.108542 -0.046495 0.044290 -0.103443 0.112616 0.049607 0.020214 -0.268944 0.139133 0.094775 0.093216 0.041368 0.069872 -0.089139 0.092577 0.007504 0.050615 -0.021073 0.058429 0.068197 -0.007891 -0.082396 -0.013811 -0.047049 -0.115866 0.110597 0.084548 -0.060194 0.029660 -0.000853 0.064616 -0.007218 -0.085400 0.097481 -0.045173 -0.008535 0.037369 -0.111308 0.041030 0.021040 -0.082263 -0.074977 0.109642 0.036780 0.130844 0.092791 0.019853 -0.002085 -0.008733 -0.107546 -0.077024 0.046073 -0.248758 -0.068915 0.101268 -0.110384 -0.007869 -0.109496 0.066601 -0.057769 0.121760 0.061385 -0.003191 -0.009946 0.099941 -0.239051 -0.130882 0.126802 -0.138039 0.078393 -0.001387 -0.196101 -0.095311 -0.045662 0.114335 0.011244 0.072932 -0.098228 -0.088217 -0.029293 -0.049866 -0.051212 -0.009985 0.053557 0.075651 -0.102500 -0.033899 0.075367 0.009834 0.063403 -0.163011 0.391724 0.050349 -0.245554 -0.207208 -0.078713 0.120993 0.191783 0.180793 0.107984 0.191878 0.062835
642 -0.056831 -0.125101 0.112445 -0.039371 0.067747 0.012950 -0.058063 -0.090042 -0.017086 -0.116179 0.043296 0.045068 0.002029 -0.071229 -0.176104 -0.035846 0.019523 -0.006850 -0.170679 0.104125 -0.005546 -0.131682 0.068260 0.116408 -0.029357 -0.081663 -0.202588 -0.039836 0.096297 -0.076306 0.064116 0.053659 0.036389 -0.297946 0.108557 0.104183 0.067803 0.112409 0.073524 -0.084329 0.064211 0.016111 -0.017020 -0.086367 0.049413 0.134739 0.032097 -0.059040 0.040063 -0.012541 -0.111300 0.087256 0.125105 -0.104222 0.078820 0.033674 0.097206 -0.040566 -0.107625 0.107752 -0.058805 -0.057264 0.022020 -0.116368 0.058605 0.023912 -0.066981 -0.105927 0.108381 0.027417 0.120435 0.150895 0.037821 0.032828 -0.001690 -0.144184 -0.086436 0.051163 -0.208282 -0.117261 0.096001 -0.111708 -0.002188 -0.127743 0.066264 -0.016812 0.104249 0.000106 -0.001946 0.017908 0.090927 -0.216945 -0.099743 0.112804 -0.145768 0.028906 -0.028701 -0.196293 -0.054945 -0.052370 0.098824 -0.022340 0.050250 -0.053100 -0.129026 -0.029197 0.000975 -0.052394 -0.022345 0.099758 0.064820 -0.082668 -0.073779 0.105317 -0.030058 0.018646 -0.142259 0.355782 0.047200 -0.201152 -0.172950 -0.085826 0.066997 0.181987 0.182601 0.093962 0.155673 0.057795
961 0.006030 -0.140803 0.061522 -0.015409 -0.023950 -0.000012 -0.073325 -0.061816 -0.049011 -0.146643 0.057792 0.145849 -0.033036 -0.062729 -0.235762 -0.064145 0.018740 -0.002151 -0.105477 0.227202 -0.005395 -0.074389 0.031088 0.100770 -0.075989 -0.108722 -0.089170 -0.089947 0.017490 -0.128233 0.057875 0.065136 0.111288 -0.331533 0.103329 0.075285 0.151968 0.056354 0.092406 -0.072712 0.126296 0.032988 0.029903 -0.098580 0.079201 0.140071 0.020001 -0.031530 -0.045502 0.061913 -0.093900 0.027812 0.103455 -0.044759 0.014022 -0.010687 0.046578 0.037816 -0.106535 0.076820 -0.059790 0.019874 -0.025294 -0.118394 0.018190 0.040462 -0.112707 -0.084264 0.091352 0.042375 0.202519 0.179010 -0.010349 0.038646 0.025252 -0.098874 -0.143802 0.115385 -0.197160 -0.088156 0.066781 -0.136082 -0.005727 -0.128879 0.015137 -0.089771 0.061190 0.003191 0.003531 0.011200 0.104767 -0.216460 -0.069500 0.109626 -0.137721 0.059635 -0.038010 -0.152459 -0.062610 -0.041868 0.115635 -0.028990 0.057099 -0.019147 -0.109642 -0.005120 -0.014326 -0.003577 -0.024535 0.066710 0.087820 -0.113320 -0.048592 0.042432 0.019428 0.059952 -0.134078 0.326696 0.103323 -0.167811 -0.196850 -0.056172 0.147246 0.166683 0.174467 0.065136 0.153502 0.081532
646 -0.088331 -0.116949 0.107943 -0.052661 0.035609 0.037670 -0.064255 -0.060065 -0.016989 -0.124204 0.015974 0.052646 -0.002733 -0.071137 -0.202786 -0.001119 -0.038336 0.002871 -0.145303 0.182602 -0.007736 -0.101073 0.072401 0.128428 -0.044330 -0.054647 -0.111834 -0.031877 0.037345 -0.111077 0.049797 0.048498 0.069095 -0.234834 0.156278 0.097847 0.112421 0.034325 0.068923 -0.097010 0.039970 0.025789 0.016211 -0.031225 0.036029 0.072277 0.005105 -0.036929 -0.025145 -0.007504 -0.134761 0.072655 0.095435 -0.061363 0.081639 0.060713 0.026612 -0.035381 -0.146020 0.085786 -0.088370 -0.005479 0.055288 -0.099651 0.011579 0.039452 -0.060567 -0.114024 0.119601 0.010279 0.170725 0.157509 0.000837 0.005147 -0.025018 -0.145274 -0.087200 0.055068 -0.252610 -0.078311 0.094150 -0.113647 -0.047962 -0.107007 0.035994 -0.055464 0.079939 0.054385 -0.027008 0.025971 0.096154 -0.198790 -0.086201 0.081318 -0.145994 0.045071 -0.027685 -0.169486 -0.055918 -0.065253 0.085068 -0.002414 0.068191 -0.088420 -0.084111 0.001248 0.010747 -0.027875 -0.053274 0.018288 0.094535 -0.094278 -0.011832 0.057544 0.023587 0.060725 -0.119798 0.361654 0.064941 -0.184541 -0.233073 -0.074279 0.110263 0.169529 0.200334 0.034898 0.187002 0.057103
649 0.006658 -0.161935 0.081235 -0.069610 0.037591 0.043571 -0.090541 -0.123565 -0.015591 -0.113742 0.029674 0.107793 -0.035071 -0.051318 -0.236166 -0.065867 0.000572 -0.019194 -0.153940 0.194399 -0.034831 -0.064270 0.048084 0.107766 -0.048505 -0.139346 -0.093268 -0.029657 0.082691 -0.115668 0.087778 0.065939 0.070809 -0.340837 0.087663 0.047882 0.118455 0.091844 0.072303 -0.061301 0.107044 -0.000799 0.021526 -0.051171 0.061459 0.111403 -0.016457 -0.045184 0.001254 0.007741 -0.068335 0.026747 0.091846 -0.084386 -0.021536 -0.011862 0.066391 0.001543 -0.082610 0.108804 -0.034090 0.011604 0.016133 -0.069723 0.035921 0.032401 -0.063030 -0.055834 0.082671 0.039483 0.165142 0.133655 0.007861 -0.035777 0.011789 -0.099725 -0.092567 0.041887 -0.230345 -0.091213 0.034888 -0.089175 0.007157 -0.098830 0.043687 -0.009743 0.069474 0.045641 0.004850 -0.037628 0.090092 -0.183390 -0.095646 0.114321 -0.106990 0.054747 -0.017589 -0.169901 -0.065374 -0.049946 0.076343 0.002659 0.037754 -0.052511 -0.104140 -0.018055 -0.013689 -0.023399 -0.015854 0.108981 0.055283 -0.116174 -0.068877 0.055692 0.005846 0.056479 -0.141493 0.342133 0.046915 -0.212317 -0.227652 -0.081419 0.133083 0.176840 0.223489 0.127022 0.147563 0.062780
647 -0.066487 -0.147558 0.090547 -0.012335 0.018887 0.048470 -0.040760 -0.051763 -0.021889 -0.126040 0.008428 0.073007 -0.051043 -0.061618 -0.207995 0.015276 -0.011596 -0.026889 -0.126296 0.193140 -0.059757 -0.099204 0.055882 0.124654 -0.015908 -0.080051 -0.116106 -0.017453 0.028492 -0.086876 0.051090 0.045254 0.053700 -0.265716 0.118328 0.069922 0.068053 0.039384 0.074819 -0.097416 0.082212 0.002127 -0.038835 -0.058828 0.052291 0.078284 0.022823 -0.043723 0.001333 0.009494 -0.089378 0.048813 0.088203 -0.061740 0.091907 -0.004039 0.040139 -0.008995 -0.135458 0.090479 -0.064175 -0.008901 0.037379 -0.117276 0.024203 -0.001863 -0.019813 -0.079975 0.078700 0.018768 0.136662 0.179428 -0.001476 0.013758 0.033414 -0.120748 -0.094708 0.032288 -0.214274 -0.095530 0.099628 -0.107370 -0.017988 -0.123001 0.031467 -0.073778 0.116824 0.047896 -0.016925 0.023144 0.097747 -0.238893 -0.103617 0.073584 -0.168901 0.044543 0.004904 -0.167493 -0.053061 -0.083903 0.093671 -0.004713 0.044709 -0.083207 -0.073596 -0.028418 -0.032465 -0.000555 0.001674 0.060856 0.076455 -0.083407 -0.063324 0.053311 -0.014319 0.052201 -0.152072 0.346875 0.034433 -0.228884 -0.251844 -0.084769 0.073371 0.184760 0.221498 0.063999 0.195343 0.049460
645 -0.048819 -0.120654 0.114120 -0.094500 0.118652 0.028058 -0.069971 -0.095539 -0.036723 -0.086141 0.016563 0.062313 -0.007328 -0.084707 -0.175477 -0.020735 -0.013245 -0.015812 -0.198931 0.118425 -0.007623 -0.057049 0.045003 0.092957 -0.036294 -0.108236 -0.143725 -0.029395 0.090614 -0.094780 0.102240 0.020455 0.027366 -0.323886 0.135343 0.081349 0.064408 0.062201 0.091831 -0.062335 0.068377 0.043675 0.009457 -0.058923 0.038373 0.082260 0.014594 -0.078044 -0.024877 -0.041982 -0.085595 0.094249 0.131589 -0.111448 0.082033 0.028745 0.039138 -0.049161 -0.139405 0.115524 -0.044855 0.023378 0.052442 -0.115489 0.010224 0.039352 -0.032359 -0.101747 0.088936 0.018029 0.165731 0.140107 0.037311 0.015827 -0.008507 -0.160296 -0.038168 0.053343 -0.248102 -0.070947 0.040805 -0.099991 0.005732 -0.100355 0.073148 -0.028722 0.091037 0.038645 -0.020753 -0.029054 0.064015 -0.184889 -0.101015 0.090854 -0.116462 0.036058 -0.008643 -0.157408 -0.050930 -0.039271 0.033733 -0.013174 0.050997 -0.075945 -0.124398 -0.023967 -0.029728 -0.033750 -0.031515 0.103081 0.105160 -0.089476 -0.034880 0.057633 0.014109 -0.010893 -0.161607 0.333793 0.049065 -0.218358 -0.249449 -0.081711 0.078410 0.169276 0.178247 0.056197 0.162379 0.068515
650 -0.022017 -0.148427 0.101524 -0.056444 0.013906 0.046991 -0.083645 -0.112220 -0.043508 -0.116942 0.024056 0.112738 -0.040946 -0.053201 -0.234000 -0.072017 0.012491 -0.027294 -0.108386 0.168248 -0.035526 -0.070398 0.006403 0.120152 -0.059827 -0.144279 -0.070872 -0.048665 0.058251 -0.116245 0.091318 0.075494 0.059821 -0.326979 0.106481 0.068677 0.152316 0.088742 0.067586 -0.058158 0.140104 -0.004984 0.031620 -0.058822 0.053731 0.090469 -0.005994 -0.061765 -0.022515 0.023054 -0.106280 0.024978 0.127847 -0.077810 -0.018454 -0.020612 0.087722 0.019938 -0.083538 0.091713 -0.059453 -0.003702 0.007017 -0.076746 0.031499 0.065602 -0.062086 -0.083303 0.079270 0.046116 0.160323 0.114664 0.001659 -0.026680 -0.000744 -0.111482 -0.099802 0.041429 -0.198121 -0.061906 0.035758 -0.084223 -0.023554 -0.105880 0.026312 -0.028808 0.063001 0.038057 0.035029 -0.004213 0.111867 -0.183200 -0.111972 0.100636 -0.093262 0.065829 -0.032910 -0.157397 -0.088335 -0.022746 0.106909 -0.016585 0.036003 -0.023576 -0.097117 -0.001152 -0.014852 -0.018087 0.000991 0.117471 0.059538 -0.090513 -0.075008 0.036951 0.005031 0.032149 -0.165072 0.362439 0.061048 -0.198340 -0.196243 -0.082389 0.156710 0.195842 0.201335 0.110924 0.171188 0.069275
960 -0.032804 -0.118943 0.075818 -0.063097 0.066041 0.055973 -0.090089 -0.072275 -0.022690 -0.112669 0.048512 0.115947 -0.043435 -0.066123 -0.147955 -0.060249 0.041721 0.003638 -0.140990 0.173251 0.021214 -0.077598 0.013237 0.070542 -0.025862 -0.122284 -0.147025 -0.029136 0.009133 -0.077913 0.098604 0.082715 0.047693 -0.286772 0.112361 0.056629 0.079990 0.127897 0.044710 -0.071320 0.167226 -0.019604 0.021845 -0.108432 0.068230 0.123781 0.031767 -0.052337 -0.064241 -0.022647 -0.060147 0.096879 0.112822 -0.087520 0.027284 0.003724 0.070519 -0.017158 -0.113016 0.058476 -0.035436 -0.030717 0.023595 -0.086892 0.063758 0.049657 -0.097233 -0.058427 0.100884 0.030439 0.158447 0.154372 -0.001905 -0.042581 0.027995 -0.148654 -0.097230 0.093730 -0.229182 -0.077872 0.070200 -0.124402 -0.019903 -0.083320 0.041723 -0.051169 0.103451 0.092875 -0.012455 -0.023681 0.112000 -0.249422 -0.102189 0.062721 -0.167560 0.025016 -0.041121 -0.181219 -0.022145 -0.044682 0.083536 -0.045095 0.056683 -0.074561 -0.139657 0.003159 -0.040290 -0.019492 -0.022594 0.071657 0.089951 -0.112757 -0.053192 0.072680 0.058959 0.004091 -0.144364 0.356462 0.082802 -0.173077 -0.170708 -0.078522 0.097676 0.185193 0.152173 0.074108 0.120178 0.076390
954 -0.068662 -0.128504 0.115218 -0.064176 0.096753 0.059359 -0.079186 -0.103627 -0.045846 -0.133988 0.026996 0.120878 -0.064488 -0.055242 -0.163522 -0.019814 -0.003255 -0.016927 -0.143147 0.196214 -0.018210 -0.090933 0.077910 0.094681 -0.001251 -0.107757 -0.146384 -0.050921 0.022532 -0.077898 0.043824 0.056095 0.043770 -0.320299 0.143307 0.067573 0.027945 0.119469 0.000041 -0.073511 0.079217 -0.013623 0.001649 -0.090730 0.051729 0.103822 0.032069 -0.084677 -0.033378 -0.022648 -0.090822 0.084180 0.075538 -0.082702 0.058084 0.037132 0.078210 -0.030098 -0.144752 0.099803 -0.047624 -0.044092 0.048634 -0.081214 0.051587 0.041066 -0.042411 -0.066679 0.083551 0.008890 0.134964 0.141505 0.049125 -0.038932 0.011504 -0.142809 -0.100745 0.038420 -0.212333 -0.092127 0.059775 -0.143988 0.002480 -0.068447 0.043204 -0.031861 0.114407 0.077827 -0.037526 0.011184 0.062944 -0.247512 -0.105574 0.118993 -0.156105 0.034808 -0.011303 -0.180143 -0.021124 -0.031166 0.061462 -0.059819 0.030594 -0.079101 -0.096164 0.018374 -0.021214 -0.004057 -0.040528 0.051795 0.076847 -0.097118 -0.070787 0.061009 0.018797 0.046319 -0.175923 0.340915 0.044625 -0.178632 -0.210100 -0.060120 0.078817 0.195482 0.161305 0.044855 0.157610 0.038405
962 -0.074006 -0.145408 0.155372 -0.063061 0.138732 0.078171 -0.067486 -0.118704 -0.011228 -0.133086 -0.003864 0.066352 -0.042006 -0.055827 -0.219227 -0.049692 -0.020090 -0.019482 -0.148964 0.121834 -0.014376 -0.059034 0.126318 0.067599 0.009788 -0.082559 -0.132791 -0.016852 0.020024 -0.107905 0.078144 0.044838 0.068614 -0.319299 0.092630 0.046580 0.070533 0.094186 0.026124 -0.041762 0.049491 -0.005104 0.021153 -0.052971 0.055426 0.125083 -0.012437 -0.097406 -0.007881 0.030393 -0.072691 0.073130 0.067922 -0.056080 0.029836 0.050545 0.063176 -0.027429 -0.073185 0.118646 -0.044895 -0.034713 0.055988 -0.088576 0.083536 0.042608 -0.087522 -0.081030 0.080812 0.027788 0.179654 0.125972 0.082033 -0.042108 -0.006128 -0.158038 -0.111697 0.022665 -0.227331 -0.113828 0.098947 -0.128524 -0.009315 -0.089404 0.049478 -0.039517 0.119215 0.057195 -0.046567 -0.002152 0.040704 -0.185203 -0.114012 0.136998 -0.102354 0.040707 0.000021 -0.226436 -0.066369 -0.040510 0.079820 0.008112 0.044772 -0.053945 -0.094479 -0.002997 -0.017505 0.020765 -0.065464 0.054014 0.026653 -0.085495 -0.060831 0.077844 0.002681 0.067373 -0.161278 0.313139 0.020421 -0.214718 -0.202129 -0.045253 0.097977 0.182208 0.217589 0.074393 0.189315 0.060495
957 -0.029369 -0.111648 0.081010 -0.044323 0.104760 0.010246 -0.061238 -0.114795 -0.032541 -0.088001 0.046628 0.093515 -0.059552 -0.014552 -0.106802 -0.038956 0.008048 0.012391 -0.166466 0.152225 -0.020600 -0.106528 0.074647 0.085202 -0.021735 -0.090703 -0.152473 -0.059771 0.055057 -0.082595 0.059233 0.040620 0.087015 -0.302742 0.100513 0.091508 0.042178 0.072706 0.058231 -0.057732 0.107514 -0.002011 -0.008022 -0.093127 0.045563 0.146234 0.022250 -0.093565 -0.025811 -0.004199 -0.081073 0.116746 0.071001 -0.102896 0.041030 0.008451 0.066769 -0.028323 -0.100812 0.089011 -0.068554 -0.016616 0.059334 -0.099434 0.095346 -0.015682 -0.056372 -0.052775 0.086053 0.055407 0.153149 0.150709 0.052562 -0.038179 -0.023317 -0.158735 -0.082912 0.090270 -0.238907 -0.098965 0.060696 -0.103063 0.027960 -0.080558 0.079698 -0.075220 0.106193 0.019617 -0.007027 -0.058151 0.046371 -0.202041 -0.097824 0.135715 -0.195022 0.006212 0.009345 -0.150773 -0.062274 -0.012979 0.081601 0.033595 0.018374 -0.068431 -0.155457 -0.034133 -0.015587 0.022226 -0.023582 0.142158 0.085475 -0.135790 -0.065821 0.108964 -0.003581 0.019789 -0.171655 0.312917 0.036830 -0.219893 -0.236890 -0.045204 0.089202 0.235901 0.206914 0.092916 0.170677 0.038119
956 -0.073186 -0.130606 0.124222 -0.054691 0.110959 0.045558 -0.059278 -0.105991 -0.039388 -0.158917 0.060482 0.103170 -0.038919 -0.053269 -0.166974 -0.003301 0.033754 0.014948 -0.150799 0.134799 -0.029384 -0.139304 0.097112 0.061653 -0.022782 -0.083585 -0.150878 0.003925 0.051061 -0.067925 0.029349 0.057594 0.057146 -0.307970 0.107219 0.103223 0.017468 0.110099 0.043196 -0.036198 0.092616 -0.008702 -0.015753 -0.084841 0.057416 0.171050 0.054325 -0.052734 0.003817 0.007976 -0.033137 0.081272 0.073497 -0.101084 0.050200 0.050625 0.065297 -0.022580 -0.130962 0.104035 -0.063684 -0.035299 0.027498 -0.091594 0.052946 -0.008619 -0.013721 -0.088035 0.058707 0.045610 0.171944 0.163364 0.072287 -0.035115 0.019731 -0.152901 -0.100876 0.043604 -0.219356 -0.142328 0.102938 -0.120771 0.004800 -0.088189 0.050432 -0.028741 0.153867 0.043108 -0.059790 -0.043812 0.057906 -0.216555 -0.101897 0.129697 -0.187987 0.003501 -0.011782 -0.176240 -0.064400 -0.047283 0.076318 -0.038077 0.012068 -0.049341 -0.114547 -0.016574 0.004714 0.059863 -0.017738 0.115899 0.070806 -0.115511 -0.061097 0.065613 0.021774 0.029250 -0.146542 0.303194 0.037376 -0.231359 -0.223271 -0.009430 0.062180 0.237962 0.217837 0.062989 0.155000 0.035043
955 -0.056956 -0.129312 0.094346 -0.070295 0.079308 0.029303 -0.065197 -0.088584 -0.046322 -0.146181 0.022243 0.100288 -0.040336 -0.050071 -0.176417 -0.026674 0.012478 0.008902 -0.150195 0.178474 -0.038597 -0.097655 0.111922 0.099273 -0.013647 -0.074235 -0.179697 -0.016268 0.015469 -0.101904 0.036065 0.043146 0.054449 -0.340973 0.113040 0.049080 0.008288 0.087741 0.032021 -0.061132 0.075476 0.019039 0.008708 -0.082134 0.027806 0.114697 0.025803 -0.072972 0.012827 0.005499 -0.075898 0.070473 0.044423 -0.046949 0.037961 0.001521 0.063912 -0.051915 -0.135073 0.098439 -0.041541 -0.001217 0.049882 -0.098875 0.057917 -0.002382 -0.042867 -0.076595 0.083841 0.003108 0.129991 0.156698 0.031607 -0.022603 -0.009316 -0.159307 -0.095617 0.045303 -0.231159 -0.135414 0.062313 -0.139439 0.009800 -0.124975 0.064803 -0.060662 0.107377 0.032402 -0.038321 -0.010479 0.059845 -0.238418 -0.129576 0.121568 -0.161491 0.025431 -0.010328 -0.196146 -0.065408 -0.029921 0.053838 -0.005825 0.015398 -0.075739 -0.097861 -0.015620 -0.001016 0.014962 -0.047227 0.094016 0.082857 -0.100314 -0.074985 0.074068 -0.023821 0.057265 -0.134293 0.326749 0.051733 -0.222400 -0.237307 -0.002194 0.063114 0.187307 0.204699 0.070470 0.147692 0.049770
1266 -0.037635 -0.135864 0.110441 -0.098081 0.090899 0.058277 -0.028716 -0.081928 -0.040579 -0.109014 0.024394 0.058349 -0.069528 -0.053591 -0.188990 -0.035690 -0.020465 -0.030907 -0.181772 0.201853 -0.027691 -0.060965 0.131575 0.101030 0.003727 -0.069482 -0.092286 -0.084352 0.021044 -0.087746 0.081797 0.046412 0.088698 -0.284702 0.128398 0.102020 0.044315 0.020408 0.014454 -0.058458 0.064578 -0.031586 -0.043730 -0.016471 0.042275 0.083517 0.004276 -0.061186 0.007451 -0.043575 -0.102045 0.135343 0.070591 -0.069510 0.044884 0.027630 0.092691 -0.031390 -0.064728 0.158681 -0.080961 0.001965 0.046872 -0.123344 0.037221 0.019309 -0.049477 -0.015327 0.076988 0.041784 0.197354 0.163320 0.047471 -0.002943 -0.020369 -0.139134 -0.069633 0.012705 -0.245488 -0.145150 0.071775 -0.099268 -0.016893 -0.163783 0.085278 -0.079385 0.100050 0.064649 -0.010511 -0.003227 0.004454 -0.188561 -0.153497 0.109582 -0.150849 0.031523 -0.001412 -0.229119 -0.077349 -0.047364 0.046915 0.006117 0.031382 -0.075633 -0.057598 -0.021867 0.010699 -0.004845 -0.016027 0.002863 0.067728 -0.079306 -0.052398 0.046883 0.011981 0.024962 -0.186641 0.340673 0.039097 -0.215745 -0.210852 -0.041230 0.072648 0.187935 0.196425 0.107306 0.134785 0.022406
963 -0.064114 -0.135493 0.129242 -0.047264 0.137317 0.033978 -0.102452 -0.144719 -0.035727 -0.158117 0.033751 0.140693 -0.046118 -0.038116 -0.198635 -0.043914 0.007654 -0.006511 -0.139691 0.159739 -0.026316 -0.059349 0.070108 0.078911 0.003997 -0.118984 -0.177871 -0.027973 0.039396 -0.088140 0.042827 0.071516 0.030526 -0.295407 0.122884 0.057791 0.030938 0.110687 0.002314 -0.076342 0.085141 -0.004639 0.022131 -0.099098 0.047435 0.100937 0.034376 -0.108448 -0.025993 -0.034853 -0.099325 0.063029 0.067436 -0.100899 0.044464 0.054511 0.051428 -0.021536 -0.130861 0.105051 -0.030528 -0.014834 0.064575 -0.074790 0.076095 0.040442 -0.059581 -0.083555 0.092981 -0.000426 0.143601 0.120914 0.037420 -0.021967 0.004951 -0.128561 -0.095774 0.021031 -0.218904 -0.084719 0.073524 -0.168592 -0.020633 -0.085583 0.054676 -0.018864 0.112445 0.057581 -0.030248 -0.037458 0.054945 -0.239448 -0.130961 0.135670 -0.127215 0.050160 -0.016244 -0.167480 -0.023084 -0.024951 0.051492 -0.048322 0.044835 -0.078947 -0.085972 0.008892 -0.023486 -0.023917 -0.041580 0.075710 0.050880 -0.095619 -0.077706 0.073979 0.019086 0.019343 -0.151521 0.328551 0.044488 -0.173322 -0.194899 -0.051106 0.085980 0.205436 0.162848 0.038541 0.139354 0.053547
958 -0.070571 -0.116191 0.082150 0.007298 0.107507 0.035287 -0.074101 -0.127080 -0.003889 -0.077429 0.074372 0.102313 -0.045646 -0.046904 -0.142798 -0.046011 0.029742 -0.000961 -0.183099 0.186245 -0.003979 -0.111433 0.078556 0.072952 -0.000436 -0.150643 -0.142130 -0.051072 0.028384 -0.072425 0.080490 0.065373 0.047210 -0.262132 0.084340 0.065937 0.047456 0.078933 0.051538 -0.091695 0.145796 0.031478 0.027182 -0.110905 0.055869 0.130801 0.051839 -0.057652 -0.060950 -0.007569 -0.054735 0.103226 0.098964 -0.087699 0.024116 -0.012842 0.033776 -0.018630 -0.086426 0.055105 -0.044547 -0.039569 0.050219 -0.100935 0.066235 -0.015754 -0.042715 -0.078292 0.083026 0.021406 0.126169 0.155483 0.010680 -0.048664 0.018103 -0.170996 -0.083685 0.092382 -0.197370 -0.042332 0.071235 -0.118475 -0.005312 -0.095081 0.029253 -0.063620 0.144636 0.060628 0.020877 -0.057674 0.069243 -0.226111 -0.113536 0.129038 -0.192414 0.016212 -0.054144 -0.158084 -0.106472 -0.044844 0.075367 0.001301 0.029527 -0.078694 -0.123982 -0.010314 -0.057518 0.012975 -0.011972 0.110535 0.102534 -0.075281 -0.055196 0.096786 0.029201 0.027410 -0.142427 0.359648 0.052660 -0.192685 -0.200217 -0.038378 0.110411 0.193441 0.196398 0.101363 0.142169 0.064648
959 -0.073825 -0.146663 0.093152 -0.038714 0.103048 0.002642 -0.055162 -0.071869 -0.009418 -0.155000 0.043031 0.082974 -0.026909 -0.039020 -0.182308 -0.039978 0.027046 -0.022332 -0.141712 0.148943 -0.010942 -0.075123 0.068500 0.073130 -0.026267 -0.082865 -0.137173 -0.047011 0.031422 -0.044523 0.016411 0.056919 -0.016304 -0.255789 0.077679 0.076916 0.081643 0.101801 0.045762 -0.067787 0.087258 0.029606 -0.003735 -0.046528 0.048033 0.106640 0.025529 -0.069539 -0.020069 0.016876 -0.091598 0.074790 0.084931 -0.054622 0.054242 0.008723 0.058518 -0.007582 -0.111614 0.080561 -0.077834 0.014578 -0.006871 -0.111783 0.026829 0.018146 -0.043653 -0.071910 0.048732 0.065882 0.174847 0.157114 0.025266 -0.029432 0.059323 -0.133914 -0.062734 0.048091 -0.227194 -0.086940 0.085657 -0.137842 -0.016710 -0.120004 0.045772 -0.056519 0.126090 0.052080 -0.017897 -0.016720 0.087290 -0.197334 -0.113701 0.088055 -0.165569 0.039869 -0.022267 -0.154474 -0.074684 -0.017243 0.040015 -0.030817 0.073465 -0.070776 -0.099022 -0.043523 -0.041291 0.032493 -0.007088 0.087922 0.091838 -0.100265 -0.091676 0.020676 0.046741 0.029698 -0.205232 0.366226 0.052325 -0.240969 -0.210778 -0.065636 0.092837 0.209371 0.198544 0.033590 0.169989 0.014989
1269 -0.093783 -0.138374 0.107030 -0.072159 0.107139 0.049957 -0.029053 -0.075664 -0.023233 -0.138317 0.030302 0.090137 -0.032968 -0.061678 -0.185080 -0.039182 -0.019650 0.000391 -0.126646 0.164535 -0.071239 -0.003794 0.101946 0.088514 0.037714 -0.074260 -0.099878 -0.065609 0.008515 -0.053864 0.070468 0.051265 0.055848 -0.321039 0.113420 0.087990 0.092173 0.067044 0.006319 -0.070900 0.122144 -0.024771 -0.007727 -0.045623 0.048058 0.042423 0.012838 -0.109454 -0.019501 0.024734 -0.094107 0.122275 0.010534 -0.030660 0.042749 0.041529 0.064567 -0.049944 -0.066357 0.131742 -0.059901 -0.026519 0.037484 -0.105106 0.024298 0.015018 -0.027245 -0.062332 0.091625 0.010749 0.200439 0.136665 0.051929 -0.018661 0.013321 -0.167346 -0.085525 0.001548 -0.219015 -0.134212 0.076710 -0.130791 -0.054883 -0.140900 0.067546 -0.060213 0.161434 0.072112 -0.026356 0.041491 0.039025 -0.247788 -0.142192 0.096802 -0.139790 0.056186 0.027680 -0.227698 -0.033847 -0.037549 0.064215 -0.024758 0.070531 -0.113055 -0.035269 -0.028975 -0.005973 -0.012798 -0.022652 0.016818 0.035686 -0.080742 -0.087602 0.023516 0.001155 0.049583 -0.132871 0.341539 0.023430 -0.242989 -0.219708 -0.031871 0.101717 0.136146 0.163251 0.068953 0.148691 0.012805
